tree
version=v4
num_class=1
num_tree_per_iteration=1
label_index=0
max_feature_idx=20
objective=binary sigmoid:1
feature_names=win_odds total_matched is_favorite odds_vs_favorite volume_rank is_high_volume days_since_last_run is_spell prep_run_number is_first_up is_second_up is_third_up betfair_horse_rating win_rate place_rate total_starts betfair_rating_advantage is_experienced is_novice is_strong_form is_consistent
feature_infos=[1.1699999999999999:1000] [0.45000000000000001:150170] [0:1] [1:840.3361344537816] [1:18] [0:1] [0:999] [0:1] none none none none [20:93.599999999999994] [0:1] [0:1] [3:79] none [0:1] [0:1] [0:1] [0:1]
tree_sizes=6592 6711 6737 6771 6768 6764 6760 6752 6809 6771 6771 6764 6782 6808 6797 6789 6796 6809 6798 6788 6813 6803 6798 6817 6794 6810 6804 6776 6800 6845 6819 6828 6842 6811 6827 6833 6822 6815 6816 6842 6799 6820 6829 6838 6839 6823 6816 6834 6818 6826 6850 6822 6836 6835 6801 6821 6790 6836 6824 6832 6825 6836 6825 6784 6820 6827 6855 6797 6818 6803 6822 6850 6822 6786 6754 6833 6792 6801 6792 6798 6823 6827 6796 6804 6797 6829 6821 6813 6796 6832 6863 6793 6800 6812 6810 6804 6796 6846 6812 6806 6852 6840 6784 6788 6824 6801 6799 6830 6783 6793 6820 6845 6797 6820 6779 6794 6828 6803 6812 6804 6827 6814 6799 6800 6780 6785 6826 6792 6834 6801 6788 6777 6780 6794 6787 6776 6798 6768 6786 6807 6811 6819 6843 6765 6748 6796 6776 6794 6790 6754 6764 6771 6772 6764 6767 6807 6767 6803 6785 6807 6850 6812 6780 6779 6782 6783 6787 6798 6814 6754 6808 6783 6776 6805 6783 6772 6770 6785 6843 6793 6796 6777 6821 6783 6802 6800 6815 6781 6759 6750 6798 6762 6794 6778 6771 6754 6812 6833 6739 6780 6807 6840 6794 6785 6783 6782 6827 6775 6779 6789 6757 6806 6842 6805 6815 6799 6770 6757 6795 6796 6782 6796 6747 6804 6791 6791 6821 6794 6807 6758 6777 6806 6789 6790 6832 6768 6806 6783 6818 6788 6782 6784 6842 6781 6797 6805 6811 6757 6826 6770 6791 6763 6773 6792 6800 6807 6736 6824 6820 6788 6777 6802 6748 6829 6756 6805 6784 6754 6825 6831 6788 6794 6786 6810 6740 6763 6787 6824 6746 6775 6765 6782 6813 6800 6742 6755 6787 6807 6757 6808 6797 6798 6802 6777 6767 6785 6725 6804 6822 6760 6809 6786 6831 6762 6782 6765 6774 6734 6763 6815 6770 6847 6820 6778 6815 6808 6765 6763 6830 6798 6725 6762 6755 6762 6876 6797 6795 6793 6772 6784 6821 6781 6788 6774 6841 6798 6749 6724 6782 6788 6776 6821 6827 6787 6775 6836 6755 6764 6779 6803 6802 6780 6793 6784 6802 6816 6774 6759 6838 6786 6759 6835 6766 6808 6752 6852 6775 6796 6773 6841 6797 6783 6791 6766 6762 6809 6797 6806 6849 6791 6750 6761 6798 6771 6791 6801 6829 6812 6772 6753 6815 6776 6768 6787 6748 6750 6770 6771 6756 6776 6743 6764 6747 6857 6779 6787 6789 6776 6793 6771 6748 6783 6802 6808 6843 6839 6764 6774 6807 6794 6748 6790 6772 6821 6756 6827 6788 6791 6779 6855 6765 6771 6824 6817 6816 6826 6741 6862 6805 6799 6785 6804 6851 6776 6847 6763 6736 6812 6753 6781 6803 6864 6776 6840 6795 6744 6805 6773 6775 6769 6788 6754 6750 6757 6789 6829 6771 6813 6806 6749 6738 6832 6783 6765 6765 6824 6767 6790 6785 6765 6872 6806 6840 6762 6803 6726 6775 6757 6768 6755 6809 6760 6799 6751 6809 6769 6838 6825 6753 6852

Tree=0
num_leaves=63
num_cat=0
split_feature=0 13 13 13 0 0 0 13 13 13 14 0 0 14 13 13 0 14 15 15 13 14 13 1 0 14 14 3 14 14 13 14 13 0 13 0 14 15 3 0 1 0 14 0 1 13 13 13 0 14 1 0 13 13 15 13 1 13 1 0 13 14
split_gain=3057.62 1297.24 745.582 465.028 343.998 339.971 245.17 160.248 124.519 93.7815 124.281 120.201 91.8127 73.8759 85.1553 72.2215 59.8966 58.1062 47.1809 39.5851 37.4257 37.2365 36.9034 36.685 69.4153 35.3288 32.2867 41.0227 29.8007 28.1609 25.4072 24.6307 25.4761 58.4318 23.691 23.2462 23.637 23.0928 24.4413 23.0481 23.5813 22.7802 27.3836 22.592 25.8212 21.7179 21.2604 20.7048 20.4258 19.4684 19.319 19.0024 18.9854 18.8774 18.1622 17.6664 17.6662 30.5555 17.4843 18.4449 16.3278 17.6051
threshold=5.6150000000000011 0.18634259259259259 0.13680926916221034 0.039230769230769208 2.6450000000000005 16.980000000000004 2.8850000000000002 0.22967032967032963 0.070598006644518263 0.4045454545454546 0.38799283154121872 4.1100000000000003 19.530000000000005 0.41277890466531442 0.41885964912280704 0.5634920634920636 3.6750000000000003 0.21525096525096524 14.500000000000002 14.500000000000002 0.23746867167919791 0.14854215918045702 0.13423423423423422 7977.8200000000006 6.8100000000000014 0.27842377260981915 0.69615384615384623 1.048199767711963 0.73508771929824568 0.73030303030303034 0.21320346320346317 0.13100686498855832 0.080540540540540509 4.9050000000000011 0.29814814814814822 4.9050000000000011 0.1939964157706093 25.500000000000004 1.7509124087591244 2.0700000000000007 28533.470000000005 2.1900000000000008 0.38165266106442575 8.6350000000000016 4005.8000000000006 0.60769230769230786 0.37171052631578955 0.32738095238095238 19.005000000000006 0.58578431372549034 19859.715000000004 7.0200000000000005 0.38278388278388281 0.13003220611916264 15.500000000000002 0.24621212121212124 16569.800000000003 0.26201372997711675 6603.0850000000009 4.705000000000001 0.098780487804878067 0.14087301587301587
decision_type=2 2 2 2 2 2 2 2 2 2 2 2 2 2 2 2 2 2 2 2 2 2 2 2 2 2 2 2 2 2 2 2 2 2 2 2 2 2 2 2 2 2 2 2 2 2 2 2 2 2 2 2 2 2 2 2 2 2 2 2 2 2
left_child=1 3 8 -1 21 7 13 43 -2 10 11 19 51 30 29 23 17 18 -6 -8 -7 -5 31 24 34 35 27 49 -11 39 54 32 -18 -34 -9 36 -24 38 -27 -15 -41 42 -23 44 -4 -30 -26 -29 -22 55 52 60 -28 -19 -3 -12 57 58 59 -13 -10 -62
right_child=2 6 5 4 16 20 9 15 12 28 26 56 -14 14 -16 -17 22 53 -20 -21 48 41 25 -25 46 37 50 47 45 -31 -32 -33 33 -35 -36 -37 -38 -39 -40 40 -42 -43 -44 -45 -46 -47 -48 -49 -50 -51 -52 -53 -54 -55 -56 -57 -58 -59 -60 -61 61 -63
leaf_value=-2.2018286882484697 -2.2008263280216069 -1.94442694260757 -2.1309120466683473 -1.9198173724758596 -1.9198173724758596 -2.1874604433259157 -1.9098901221515425 -2.0876351755774101 -2.182981479997355 -1.9652309574265878 -2.0808460226200505 -2.0077444467769543 -2.1954584616629549 -1.9979846978641831 -1.956613358233946 -1.991056112344713 -2.158603197241129 -2.1391105264110672 -2.0801407357274613 -2.0108883608211436 -2.1285522549564737 -1.9958833165193282 -1.9724081628844443 -2.1519508199091386 -2.1290784730166421 -2.1603372058671542 -2.1274259265193112 -2.1214572991501295 -2.0779988336875053 -2.0935044166733814 -1.9116068646888305 -2.159909504972779 -1.9672530021043699 -2.1419094956344358 -2.01997623735513 -2.1287851374782654 -2.08484179345152 -2.0919734856950289 -2.0909768608261539 -2.0320294616474937 -2.1132327967277513 -2.0729806631938943 -2.0691432386987803 -2.1617918529029176 -2.158859983423262 -1.9830604729975707 -2.0888489320520693 -2.0750353471755303 -2.1704735683377714 -2.0995583809933889 -2.1809578489874517 -2.1787424079910558 -2.0240535008811888 -2.1044992846088211 -2.0520118793455921 -2.0339126465826194 -2.1589738575616799 -1.98599904130464 -2.1178305619805413 -2.0851676486783779 -2.1102585011464319 -2.1598091484248929
leaf_weight=92.341347575187683 1039.3000274896622 3.1270974278450003 59.138930767774582 2.1153894364833823 2.1153894364833814 260.74474141001701 6.4381417632102949 12.692336618900301 21.981655448675156 8.1856373846530932 12.968256980180742 4.138805419206629 431.53944504261017 11.680628627538683 13.612071156501768 3.9548585116863242 7.3578763008117658 33.57031062245369 7.5418232083320618 7.6337966620922089 12.416416257619856 11.1287879049778 2.207362890243532 27.959929943084717 89.950037777423859 32.006761908531189 12.232469350099564 33.294390261173248 5.9782744944095594 8.1856373846530897 8.7374781072139722 113.67918884754181 2.6672301590442657 4.874593049287796 7.3578763008117667 7.633796662092208 7.0819559395313263 7.2659028470516196 5.3344603180885306 12.600363165140154 4.3227523267269126 18.394690752029419 7.8177435696125022 181.46362426877022 59.874718397855759 3.4030177891254425 13.612071156501768 11.680628627538679 66.404833614826202 12.416416257619856 5.3344603180885306 388.49586868286133 1.8394690752029426 24.556912153959274 2.5752567052841187 16.279301315546036 2.0234159827232352 3.5869646966457358 7.3578763008117667 8.3695842921733838 7.7257701158523551 39.180691301822662
leaf_count=1004 11300 34 643 23 23 2835 70 138 239 89 141 45 4692 127 148 43 80 365 82 83 135 121 24 304 978 348 133 362 65 89 95 1236 29 53 80 83 77 79 58 137 47 200 85 1973 651 37 148 127 722 135 58 4224 20 267 28 177 22 39 80 91 84 426
internal_value=-2.17003 -2.10977 -2.18369 -2.14302 -2.12476 -2.15926 -2.05293 -2.14234 -2.19378 -2.07254 -2.08044 -2.03505 -2.18553 -2.00358 -2.02072 -2.11762 -2.13738 -2.11317 -2.04502 -1.96468 -2.18198 -2.04226 -2.14601 -2.12092 -2.1139 -2.12691 -2.09737 -2.08953 -2.00706 -2.04444 -1.94375 -2.15516 -2.11889 -2.08014 -2.06281 -2.09 -2.05812 -2.14091 -2.15043 -2.0304 -2.05277 -2.0492 -2.02611 -2.15513 -2.14497 -2.04356 -2.12379 -2.1094 -2.16387 -2.06808 -2.13234 -2.17617 -2.11391 -2.12449 -1.99301 -2.05472 -2.07392 -2.06658 -2.08114 -2.05955 -2.16165 -2.15165
internal_weight=3341.49 617.694 2723.79 389.692 297.35 795.57 228.002 456.004 1928.22 163.161 145.594 39.5486 888.923 64.8413 50.4015 155.527 257.894 67.7844 9.65721 14.0719 339.566 39.4566 190.109 151.572 123.612 61.5302 106.045 86.639 17.5669 36.7894 14.4398 128.579 14.8997 7.54182 20.0502 16.9231 9.28932 44.6071 37.3412 28.6037 16.9231 37.3412 18.9465 300.477 119.014 9.38129 103.562 44.975 78.8212 41.664 19.4064 457.384 14.0719 58.1272 5.70235 29.2476 25.4766 23.4532 19.8663 12.5084 68.8881 46.9065
internal_count=36331 6716 29615 4237 3233 8650 2479 4958 20965 1774 1583 430 9665 705 548 1691 2804 737 105 153 3692 429 2067 1648 1344 669 1153 942 191 400 157 1398 162 82 218 184 101 485 406 311 184 406 206 3267 1294 102 1126 489 857 453 211 4973 153 632 62 318 277 255 216 136 749 510
is_linear=0
shrinkage=1


Tree=1
num_leaves=63
num_cat=0
split_feature=0 13 13 13 0 0 0 13 13 0 13 14 0 0 14 14 13 13 12 13 14 15 13 13 14 1 0 13 14 1 13 12 12 1 0 13 14 4 13 15 2 14 0 0 14 0 13 14 0 6 13 14 12 0 12 12 6 1 13 15 13 12
split_gain=2776.43 1149.89 639.937 413.423 275.137 274.704 214.923 118.452 112.056 79.5721 75.7233 80.9459 89.1869 51.142 45.9615 45.118 64.6166 41.9511 37.9289 35.8745 31.7889 31.5287 26.7377 26.578 26.3823 26.3304 36.2582 24.4327 25.5922 31.4884 23.38 36.3923 26.1709 22.9013 23.3122 22.8296 22.1609 21.7787 20.2324 19.9286 19.8172 23.0872 19.7939 19.7286 18.5939 38.919 30.7358 28.9552 18.4944 18.4875 17.8999 16.8352 16.755 16.9568 16.716 16.3886 16.3399 16.1858 19.5931 16.9676 16.1589 16.1477
threshold=6.0100000000000007 0.17573529411764707 0.13680926916221034 0.054804804804804756 16.980000000000004 2.6900000000000008 3.0600000000000001 0.26568627450980392 0.070598006644518263 19.530000000000005 0.38278388278388281 0.38799283154121872 4.1100000000000003 3.8750000000000004 0.21525096525096524 0.41277890466531442 0.41885964912280704 0.5634920634920636 38.650000000000013 0.23746867167919791 0.3943381180223286 14.500000000000002 0.21320346320346317 0.21132376395534289 0.55718954248366026 7977.8200000000006 7.6200000000000001 0.18634259259259259 0.68990384615384626 4642.1250000000009 0.21320346320346317 34.750000000000007 32.550000000000004 28533.470000000005 2.1300000000000003 0.028174603174603106 0.70294117647058829 2.5000000000000004 0.60769230769230786 25.500000000000004 1.0000000180025095e-35 0.55277777777777792 4.8050000000000006 6.8100000000000014 0.19478319783197831 4.9050000000000011 0.10620300751879695 0.10960960960960962 19.005000000000006 62.500000000000007 0.26006441223832527 0.30495169082125612 30.550000000000004 9.6050000000000022 34.45000000000001 30.850000000000005 37.500000000000007 4005.8000000000006 0.24621212121212124 13.500000000000002 0.13003220611916264 42.250000000000007
decision_type=2 2 2 2 2 2 2 2 2 2 2 2 2 2 2 2 2 2 2 2 2 2 2 2 2 2 2 2 2 2 2 2 2 2 2 2 2 2 2 2 2 2 2 2 2 2 2 2 2 2 2 2 2 2 2 2 2 2 2 2 2 2
left_child=1 3 8 35 7 20 15 30 -2 52 11 12 23 14 21 22 33 18 51 -6 39 -7 54 -8 42 26 -20 -13 40 -30 32 -32 37 -17 -35 -1 -28 -4 -26 -5 57 50 -12 -34 45 46 47 -15 -21 -37 56 -9 53 -10 -3 -23 -42 59 -59 -29 -16 -33
right_child=2 6 4 5 19 13 10 17 9 -11 24 27 -14 44 60 16 -18 -19 25 48 -22 55 -24 -25 38 -27 36 28 29 -31 31 61 43 34 -36 49 -38 -39 -40 -41 41 -43 -44 -45 -46 -47 -48 -49 -50 -51 -52 -53 -54 -55 -56 -57 -58 58 -60 -61 -62 -63
leaf_value=-0.033318373284506042 -0.030704496808845152 0.20915316502412235 0.07624152077836753 0.14185083822355365 -0.01714973802113362 0.1847439983127232 0.11863548264987003 0.068620621292129549 0.012421818779250575 -0.025180824761379294 0.24945956408606737 0.0066469377455194859 0.078566118461039558 0.13942923173546068 0.027457051694898579 0.11941532827918554 0.17392518970103377 0.1499863469891228 0.091107602074746885 0.03891255520213472 0.07447375367102306 0.050274596330202821 0.20387345473476112 0.19320397162634487 0.09832616179856532 0.011217880081030767 0.034762069640625406 0.11939338038618399 0.13726718761348033 0.013277599488652998 0.1100990336254869 0.033005120780555862 0.030503046010658261 0.12010539195849808 0.039951152791230848 0.072827931817252486 0.11325909371946036 0.022035329541934334 0.16769390204226389 0.067923241644468238 0.16338676504101032 0.056123344826959971 0.12706039191566987 0.0025556697058048351 0.014435048948687752 0.015590189546137053 0.129595897305533 0.01858568141156438 -0.00043249191957761866 -0.0098478495797821169 0.13891578750619207 0.1601541573036897 -0.012277855764328527 -0.0064513843038605809 0.11533844641638047 0.14921623627961147 0.070076566369380741 0.021970419440048957 0.064350160466442347 0.05213552764514872 0.058064110241435408 0.0015300699309027208
leaf_weight=96.491991683840752 997.38080091774464 2.2198097705841082 7.6549913808703414 22.864298701286319 257.1486534923315 3.1504383236169806 7.865322798490527 3.522524192929267 62.823647640645504 422.87692674994469 2.5390814989805248 7.4638897255063048 41.944916591048241 2.2493519634008434 41.328639306128025 37.767264567315578 17.727921694517136 3.9112815707921973 16.578319601714611 12.830623425543306 13.302658125758169 6.4313145205378515 12.085899613797663 9.4950172603130323 16.561970442533497 17.447481721639633 47.832750849425793 6.8608527556061727 2.106811203062537 14.744714781641958 4.8040003255009642 57.708585798740387 26.245156802237034 5.6472591161727888 7.7436089590191841 2.8203063681721714 3.471800945699214 51.884013183414936 4.9049301967024794 3.8317266106605521 1.9782269820570935 14.024614579975603 2.2364763915538788 169.87615189701319 144.60339921712875 29.344263769686222 5.6904570236802092 8.6354923471808416 66.38130447268486 17.78323121368885 8.6789620965719205 3.7163605690002441 237.17325119674206 134.72322206944227 7.4334554970264435 1.9676734432578085 11.553016006946565 15.657997421920298 26.324659079313278 6.645753987133503 24.863828435540199 19.669831819832325
leaf_count=1076 11114 21 82 222 2835 29 77 37 684 4692 24 79 428 22 440 372 164 37 168 135 134 66 108 87 163 187 500 71 22 157 51 612 280 55 80 30 36 558 46 38 20 143 22 1828 1550 315 57 92 722 192 85 39 2593 1475 72 20 116 164 272 69 258 208
internal_value=-2.88064e-05 0.0522671 -0.0143209 0.0207905 0.00865659 0.039019 0.0980861 0.024431 -0.0238672 -0.0159156 0.0808354 0.0737222 0.102234 0.0280836 0.0485893 0.136459 0.124567 0.0537483 0.049682 -0.011712 0.112361 0.103812 0.174139 0.15942 0.128363 0.0440888 0.0525374 0.0591503 0.0627596 0.028779 0.0160587 0.0299783 0.0115842 0.107463 0.0737542 -0.0271973 0.040074 0.0290047 0.114176 0.13124 0.0690025 0.0862586 0.192138 0.00629562 0.0197164 0.0363476 0.0730956 0.043558 0.00594056 0.00146919 0.105287 0.115613 -0.00690271 -0.000449348 0.136912 0.0734542 0.0837182 0.0577342 0.0485441 0.0863 0.038954 0.0250041
internal_weight=3343.23 717.572 2625.66 425.359 770.684 308.264 292.212 434.323 1854.98 857.597 201.587 175.345 59.3053 268.265 77.7419 90.6252 68.8861 96.4805 92.5692 336.361 39.9987 11.5494 21.7392 17.3603 26.2425 85.3304 67.8829 116.039 108.576 16.8515 337.843 82.1824 255.66 51.1581 13.3909 117.096 51.3046 59.539 21.4669 26.696 91.7241 36.2348 4.77556 196.121 190.523 45.9196 16.5753 10.8848 79.2119 20.6035 22.2102 7.23888 434.72 197.547 9.65327 8.39899 13.5312 55.4893 41.9827 13.5066 66.1925 77.3784
internal_count=36331 7458 28873 4541 8315 3243 2917 4623 20558 9444 2045 1790 592 2849 813 872 671 1004 967 3692 394 115 201 164 255 891 704 1198 1119 179 3619 871 2748 507 135 1298 536 640 209 260 940 364 46 2108 2036 486 171 114 857 222 221 76 4752 2159 93 86 136 576 436 140 698 820
is_linear=0
shrinkage=0.03


Tree=2
num_leaves=63
num_cat=0
split_feature=0 13 13 13 0 0 0 13 13 0 13 14 0 13 0 14 13 13 13 13 1 0 13 14 14 13 12 12 14 1 13 14 3 13 12 12 12 3 4 3 0 12 0 13 12 0 0 3 13 1 14 12 13 12 12 14 1 0 1 3 14 15
split_gain=2532.05 953.705 616.44 343.257 254.349 229.113 195.975 111.667 103.24 77.8553 68.3716 64.0474 73.9568 42.7855 36.6677 47.614 46.4853 34.3817 31.9594 28.0419 27.7474 30.9071 27.6887 46.966 23.5606 22.2604 29.6912 23.6966 21.2199 25.6609 20.4493 21.3127 19.1521 18.9972 18.9527 18.6319 25.0767 18.6661 18.4799 22.1847 17.9801 17.9459 19.6166 17.3882 26.0428 18.3079 29.5082 17.2537 16.866 16.6942 16.2485 16.2365 27.7476 17.7274 15.5308 22.6828 15.3304 18.9242 15.24 17.7599 14.7468 14.7408
threshold=6.0100000000000007 0.16064516129032258 0.13680926916221034 0.039230769230769208 16.980000000000004 2.6900000000000008 3.0600000000000001 0.070598006644518263 0.26794871794871794 19.530000000000005 0.38278388278388281 0.38799283154121872 4.1100000000000003 0.18634259259259259 4.5150000000000015 0.14459930313588848 0.089087301587301507 0.23746867167919791 0.5634920634920636 0.19139194139194138 8476.0250000000015 7.6200000000000001 0.36602870813397131 0.41277890466531442 0.42678571428571427 0.21320346320346317 34.750000000000007 32.550000000000004 0.68990384615384626 4642.1250000000009 0.21320346320346317 0.23606811145510834 1.0287784679089029 0.073622402890695507 39.050000000000004 41.050000000000004 40.45000000000001 1.3476719087264881 2.5000000000000004 2.0938089252042746 6.8100000000000014 34.45000000000001 42.085000000000008 0.20638945233265718 34.95000000000001 5.3200000000000012 4.4050000000000011 1.0683374844333751 0.22967032967032963 5769.5400000000009 0.64852941176470602 28.950000000000003 0.11696306429548561 28.450000000000003 40.850000000000001 0.44058823529411767 37751.760000000002 2.0700000000000007 2191.0250000000005 3.7323383084577118 0.14854215918045702 9.5000000000000018
decision_type=2 2 2 2 2 2 2 2 2 2 2 2 2 2 2 2 2 2 2 2 2 2 2 2 2 2 2 2 2 2 2 2 2 2 2 2 2 2 2 2 2 2 2 2 2 2 2 2 2 2 2 2 2 2 2 2 2 2 2 2 2 2
left_child=1 3 7 -1 8 24 22 -2 25 51 11 12 19 -13 15 16 -7 -6 20 -8 21 34 23 30 60 27 -27 38 47 -30 31 -3 -12 -17 -10 36 37 -28 39 -4 -29 -19 -43 45 -45 46 -14 50 54 -21 -15 52 -9 -54 55 -49 -25 -58 59 -23 -5 -62
right_child=2 6 4 5 17 14 10 9 18 -11 32 13 43 28 -16 33 -18 41 -20 49 -22 58 -24 56 -26 26 35 40 29 -31 -32 -33 -34 -35 -36 -37 -38 -39 -40 -41 -42 42 -44 44 -46 -47 -48 48 -50 -51 -52 -53 53 -55 -56 -57 57 -59 -60 -61 61 -63
leaf_value=-0.031703004928296835 -0.030538708567988584 0.19492347267569513 0.022462176683880248 0.17544664198474313 -0.016868547935267618 0.046495504866839017 0.089451382080629332 -0.0019734943437041976 0.16993857653964697 -0.024931369229454381 0.14007617451038407 0.0097072566166062565 0.0046339497343673847 0.083945692595766438 0.010464697547049409 -0.0050983768205728154 0.18323770330066874 0.078300005461454228 0.12990506719631884 0.10299083356693006 0.010516604470134305 0.085019925323579867 0.14419505642455624 0.099164984443652363 0.059127010486404591 0.0978870844763121 0.12005884772272479 0.028874681994069659 0.11956129715931747 0.012743014145184693 0.16836436557506013 0.10060697724277493 0.09094590528529034 0.032380853362372668 0.076496685627197775 0.005069422247242346 0.10928502514403134 0.02539216215416654 0.020999516812917212 0.12172151418168783 0.0024739075091942189 0.013153021630089674 -0.019612619541579692 0.17858073967785199 0.074442560555813733 0.023725832729531833 0.091644188548490227 0.016094256601701579 0.063384943665418692 0.17406828358505808 0.026362645241336417 -0.010186806468109169 0.078828202898974312 0.0035592135916212432 -0.0034556166373836323 0.1146138267484631 0.10744575815580797 0.0099173027534464279 0.031020525512370174 0.030156543360396724 0.1284178838034008 0.084416315599176284
leaf_weight=99.151612564921379 973.07905140519142 2.6082500219345119 4.2676900103688222 2.9953045025467899 253.64565197378397 5.9685487747192365 10.197686173021795 101.18929383903742 2.2057218924164799 414.42324829101562 12.879279151558878 19.387152515351772 4.6697499230504098 38.613883160054684 122.67323983460665 13.694099262356756 3.5791923552751541 2.9532458186149588 4.372527375817298 4.1316589489579192 15.662157282233236 13.130134724080564 27.140837207436562 46.522855073213577 9.9795504212379438 5.2340404316782942 1.9511641710996617 26.883389964699745 2.3422384783625629 14.899953216314314 12.954942233860491 12.44359292834997 16.027661807835102 109.48281130194664 17.089454270899296 29.487370721995831 3.7777010053396216 47.754671558737755 52.79560562223196 3.8589892238378525 170.22051092237234 52.736685894429684 23.896405547857285 2.3987047076225307 21.835033506155014 13.046627730131148 14.098640404641626 5.4175409227609652 36.383972942829132 10.614413186907766 4.978937789797782 319.60192096233368 6.6824096515774709 4.8673885688185692 7.9318579137325278 3.4380042031407356 3.1702852696180335 4.1144502982497215 35.188805423676968 8.9164230003952962 13.068285219371321 14.405388243496416
leaf_count=1134 11114 21 43 25 2835 59 97 1107 21 4692 112 202 46 363 1298 144 31 32 37 34 166 132 227 424 95 51 20 280 22 157 100 112 143 1133 162 309 39 493 558 39 1828 565 260 23 207 132 139 55 357 86 49 3519 73 53 81 35 28 41 355 90 114 132
internal_value=-5.20226e-05 0.0486102 -0.0140599 0.0166048 0.00832749 0.0327949 0.0844998 -0.0236065 0.0232269 -0.0156401 0.0695252 0.0636854 0.084729 0.0509084 0.0222884 0.0332168 0.0977565 -0.0114707 0.0506563 0.127701 0.0468977 0.0543432 0.117938 0.109227 0.0991341 0.0155767 0.0285871 0.0111292 0.0579148 0.0272536 0.140733 0.116951 0.112836 0.0282141 0.0871785 0.0242155 0.0347714 0.0291082 0.027482 0.0695959 0.00607476 0.00573233 0.00293575 0.0656046 0.0847504 0.0510212 0.0699952 0.0633783 0.051908 0.154153 0.0773689 -0.00673388 0.00305475 0.0471079 0.0270336 0.0543427 0.0928285 0.0523613 0.0432737 0.0628312 0.112238 0.105346
internal_weight=3343.12 747.246 2595.87 394.998 776.028 295.846 352.248 1819.84 442.796 846.764 243.293 214.386 80.9925 133.394 255.398 132.725 9.54774 333.232 96.5652 24.9438 92.1927 76.5305 108.955 81.8144 40.4485 346.231 88.2049 258.026 114.006 17.2422 28.0068 15.0518 28.9069 123.177 19.2952 82.9709 53.4835 49.7058 60.9223 8.12668 197.104 79.5863 76.6331 56.0488 24.2337 31.815 18.7684 96.7642 53.1714 14.7461 43.5928 432.341 112.739 11.5498 16.7874 8.85555 53.8076 7.28474 57.2354 22.0466 30.469 27.4737
internal_count=36331 7458 28873 4165 8315 3031 3293 20558 4623 9444 2340 2085 764 1321 2665 1367 90 3692 963 217 926 760 953 726 366 3660 912 2748 1119 179 233 133 255 1277 183 861 552 513 640 82 2108 857 825 547 230 317 185 940 528 120 412 4752 1233 126 171 90 493 69 577 222 271 246
is_linear=0
shrinkage=0.03


Tree=3
num_leaves=63
num_cat=0
split_feature=3 13 13 4 13 13 13 13 3 14 13 13 3 3 15 14 3 3 1 3 14 14 1 3 15 1 14 14 13 4 3 13 12 1 4 13 12 3 1 13 12 12 13 13 3 12 12 14 1 13 1 1 12 1 14 13 4 15 4 12 13 6
split_gain=2145.36 746.19 691.577 275.474 257.909 131.6 120.715 79.1841 76.5407 58.9557 57.6911 53.6892 50.8413 45.2351 49.0329 34.3935 33.7525 29.8026 28.0997 24.5212 23.882 23.8688 22.9218 22.0641 21.0368 20.2772 27.5096 19.9151 20.7817 19.4485 19.0083 18.7098 18.3989 17.8566 18.0576 17.6474 28.8145 25.5477 21.4138 17.6346 24.8275 17.8765 17.2362 17.0554 16.4071 16.3539 15.5355 15.1302 15.055 15.553 17.0693 17.7908 14.1189 13.4405 13.4334 30.8038 13.2901 13.188 12.9015 12.7865 26.4619 13.9776
threshold=1.4138637648388923 0.13680926916221034 0.16064516129032258 5.5000000000000009 0.058257918552036152 0.070598006644518263 0.23205128205128203 0.4045454545454546 6.3499278499278509 0.45227272727272733 0.28062500000000007 0.23746867167919791 1.048199767711963 1.0287784679089029 9.5000000000000018 0.22335600907029476 5.5618686868686877 4.2883795309168447 6782.3700000000008 7.2771403353927635 0.91608391608391637 0.69615384615384623 2295.6900000000005 1.003401360544218 35.500000000000007 9591.7900000000027 0.44281045751633991 0.13423423423423422 0.089087301587301507 3.5000000000000004 1.0683374844333751 0.026671408250355601 33.250000000000007 13732.415000000003 2.5000000000000004 0.29814814814814822 42.650000000000013 2.1821789321789327 4943.3600000000015 0.17108013937282227 31.350000000000005 41.050000000000004 0.021527777777777753 0.37171052631578955 2.4721362229102173 28.450000000000003 32.850000000000001 0.30495169082125612 3923.2200000000007 0.22653958944281524 5394.7350000000015 10186.180000000002 24.950000000000003 4005.8000000000006 0.19292803970223327 0.13003220611916264 2.5000000000000004 28.500000000000004 5.5000000000000009 28.950000000000003 0.11696306429548561 18.500000000000004
decision_type=2 2 2 2 2 2 2 2 2 2 2 2 2 2 2 2 2 2 2 2 2 2 2 2 2 2 2 2 2 2 2 2 2 2 2 2 2 2 2 2 2 2 2 2 2 2 2 2 2 2 2 2 2 2 2 2 2 2 2 2 2 2
left_child=2 5 4 6 42 31 17 9 29 11 16 15 53 14 25 -4 24 18 39 22 35 23 -12 43 -5 32 -27 28 -15 47 -9 -2 -6 34 -14 36 -8 38 -37 40 -3 44 -1 -11 -41 -30 56 -7 -25 -50 -51 -52 -44 -13 55 57 -19 -16 -33 60 61 -31
right_child=1 3 7 10 13 8 20 30 -10 21 19 12 33 27 54 -17 -18 46 -20 -21 -22 -23 -24 48 -26 26 -28 -29 45 59 -32 58 -34 -35 -36 37 -38 -39 -40 41 -42 -43 52 -45 -46 -47 -48 -49 49 50 51 -53 -54 -55 -56 -57 -58 -59 -60 -61 -62 -63
leaf_value=-0.033110093776195039 -0.033123430530002544 0.049972812454837215 0.12226035102256154 -0.0012463586205261356 0.12139132281011421 0.0090359695615016104 0.048309325996336402 0.12679666987813598 -0.023853380269935321 0.07285640096789564 0.066070643219943617 0.090431204829983652 0.11480513622692137 0.014027903584557253 0.05783325894436897 0.067318406442415935 -0.018795348954763518 0.098543027795861687 0.00030219241206979556 -0.00018630308469065203 0.13343801585386209 0.037804961934440509 0.0088406740308800066 0.089026814547026906 0.067426961089367979 0.10174433000339055 0.028276685060533293 0.012777079001279557 0.041843295539981409 0.041339437904473371 0.071899989208383419 -0.015460037449187201 0.029381625353746638 0.0096496788979016247 0.039278942401456088 0.11186625905032276 0.011484698777280426 0.042700680584356249 0.058744659388256897 0.054975958634375099 0.0090315461072594319 0.0042162831677976971 0.058881940535726367 0.13620398146625823 0.026632406063537936 0.14250065427963773 -0.0098859292796241935 -0.014886061106935428 0.0068533588998700512 -0.021447865562233777 0.10750986065927723 0.041518692865090946 -0.011894629981846708 0.14516535248068579 0.028181627466888608 0.16288074867235433 0.013425989268679266 0.0036553589641741468 -0.028331152403108815 -0.013619532120378848 0.043209212186502199 -0.0092743238368612584
leaf_weight=66.469839632511139 650.61368147283792 16.485981576144695 11.838265120983122 112.59931150823832 2.3088006824254981 105.19316454976797 61.255533032119274 35.835388779640198 395.13566766679287 73.73298005014658 15.601404547691347 4.7734398692846325 7.8210227042436582 5.6694764047861081 14.650375038385397 76.645458526909351 217.38999203592539 1.8120954930782343 46.78789396584034 21.665450938045979 2.8513404726982108 31.667076952755451 10.563161008059977 6.3338957130908957 4.1630586981773368 22.20671480149031 5.7812533825635901 82.787250056862831 2.7659061029553413 5.2224041521549216 6.7451828792691222 101.73291689157486 12.799945384263991 3.4033918380737296 4.4817248359322548 10.866022840142252 27.804442867636681 46.548224084079266 18.385183766484261 39.51663264632225 69.651200823485851 13.472625762224196 2.9179230704903629 4.0344149544835082 34.36591711640358 3.0596670880913734 52.267019242048264 30.75146572291851 9.5978187099099177 2.3548207283020046 5.7148838266730335 10.30966195464134 19.414690725505352 26.198955625295639 85.5280791670084 2.1276172772049895 18.567015372216702 5.5852681100368491 225.33378681540489 236.06800219416618 10.953550659120081 82.258039399981499
leaf_count=781 7618 168 102 1211 21 1138 598 271 4547 649 154 38 67 60 137 694 2445 18 483 236 24 298 107 60 45 194 56 867 27 58 57 1183 127 31 41 97 278 453 171 395 728 140 31 34 360 30 570 335 97 22 53 97 208 197 846 19 202 55 2638 2634 118 912
internal_value=-7.1431e-05 -0.0119474 0.0485851 0.0114399 0.018358 -0.0226385 0.0270602 0.0799955 -0.0141193 0.074178 -0.00739671 0.0884021 0.114434 0.0342188 0.0443995 0.0746691 -0.0118077 0.0154397 0.020935 0.0234193 0.0473567 0.0608033 0.0429658 0.0673013 0.00120213 0.0714494 0.0865687 0.0179148 0.0549167 -0.00594347 0.1181 -0.0301809 0.0434418 0.0704675 0.087292 0.0458679 0.0368127 0.0565072 0.0784779 0.0264993 0.0168674 0.0359969 -0.0254491 0.0761427 0.0417922 0.0947099 -0.00122316 0.00362467 0.0472619 0.0378066 0.0539705 0.0650533 -0.00264714 0.13673 0.0335946 0.0542963 0.0209945 0.0428795 -0.0243276 -0.00983204 -0.000748747 -0.00625279
internal_weight=3341.44 2685.88 655.561 842.62 334.073 1843.26 460.637 321.488 865.582 278.908 381.982 135.162 46.6785 245.27 150.988 88.4837 334.152 292.926 220.28 47.83 167.711 143.746 26.1646 112.078 116.762 43.0967 27.988 94.2823 11.495 470.447 42.5806 977.68 15.1087 15.7061 12.3027 164.859 89.06 75.7994 29.2512 173.492 86.1372 87.3552 88.8025 77.7674 73.8825 5.82557 72.6461 135.945 34.3111 27.9772 18.3794 16.0245 22.3326 30.9724 107.891 22.3633 20.3791 20.2356 327.067 334.502 98.434 87.4804
internal_count=36331 30064 6267 8883 3459 21181 4685 2808 9742 2480 4198 1170 374 2439 1455 796 3701 3064 2274 497 1621 1310 261 1012 1256 398 250 984 117 5195 328 11439 148 139 108 1597 876 721 268 1791 896 895 1020 683 755 57 790 1473 329 269 172 150 239 235 1057 211 220 192 3821 3722 1088 970
is_linear=0
shrinkage=0.03


Tree=4
num_leaves=63
num_cat=0
split_feature=3 13 13 13 3 13 13 3 3 13 13 14 13 3 15 1 14 3 14 3 15 13 13 5 13 14 1 13 1 14 13 13 15 3 1 14 3 1 3 13 14 3 13 3 14 13 15 14 13 1 1 13 3 1 13 1 5 6 1 1 14 3
split_gain=1963.85 715.284 584.769 237.749 229.593 130.865 115.554 74.6594 65.2227 62.9816 57.4103 54.2002 43.0985 39.5477 41.2623 32.352 27.2428 24.0616 20.787 20.6623 24.9251 20.128 18.9249 18.4822 18.4458 18.4061 18.1601 18.0172 24.587 17.4763 17.1929 17.0548 16.7457 19.4709 16.4737 22.0958 15.8975 31.2553 14.9327 14.3428 14.2644 13.9805 13.9676 13.0935 12.587 12.4491 14.0628 13.3313 13.628 13.9061 12.2267 12.2142 13.2808 12.1174 12.089 11.7938 10.9607 10.7927 10.6741 14.1551 12.4154 17.9114
threshold=1.4138637648388923 0.13680926916221034 0.16064516129032258 0.058257918552036152 4.0586884775434067 0.070598006644518263 0.26794871794871794 6.3499278499278509 1.048199767711963 0.23606811145510834 0.37171052631578955 0.44636015325670503 0.23746867167919791 1.0287784679089029 9.5000000000000018 11744.185000000003 0.22335600907029476 7.2771403353927635 0.68301435406698574 2.5707610146862487 29.500000000000004 0.45227272727272733 0.026671408250355601 1.0000000180025095e-35 0.52753623188405807 0.69615384615384623 2708.7600000000007 0.17192118226600986 6456.7550000000001 0.13423423423423422 0.089087301587301507 0.021527777777777753 10.500000000000002 2.1821789321789327 9591.7900000000027 0.44281045751633991 7.3854895104895109 117.24000000000002 3.5018248175182487 0.30368906455862982 0.30495169082125612 1.3668776371308018 0.15707236842105263 1.9358948017259092 0.29864864864864871 0.13759296822177147 19.500000000000004 0.18561584840654602 0.10762548262548262 14376.300000000001 13732.415000000003 0.19292803970223327 1.1134219554030877 2059.9200000000005 0.24068965517241384 4080.3400000000006 1.0000000180025095e-35 18.500000000000004 4943.3600000000015 1633.6600000000001 0.40312500000000007 1.6514837819185648
decision_type=2 2 2 2 2 2 2 2 2 2 2 2 2 2 2 2 2 2 2 2 2 2 2 2 2 2 2 2 2 2 2 2 2 2 2 2 2 2 2 2 2 2 2 2 2 2 2 2 2 2 2 2 2 2 2 2 2 2 2 2 2 2
left_child=2 5 3 31 6 22 19 23 10 36 11 12 16 14 34 41 -4 39 -12 20 27 -20 -2 57 26 -13 32 -3 58 30 -15 -1 33 -8 -5 -36 37 -6 -34 54 -25 51 -22 -28 -30 47 50 48 49 -16 -47 -10 -53 -24 -11 -32 -54 -7 59 60 61 -29
right_child=1 4 8 13 9 7 24 -9 15 17 18 25 -14 29 45 -17 -18 -19 21 -21 42 -23 53 40 -26 -27 43 28 44 -31 55 -33 38 -35 35 -37 -38 -39 -40 -41 -42 -43 -44 -45 -46 46 -48 -49 -50 -51 -52 52 56 -55 -56 -57 -58 -59 -60 -61 -62 -63
leaf_value=-0.033008806922895373 -0.033021665834213142 0.0082186551147254167 0.13055685544225271 0.040744786485709741 0.10277530766293441 0.013447108208041592 0.1295626785004057 -0.02359601727097935 0.045937314358096212 0.087910238242226588 0.13380416740523887 0.065753176152248835 0.11986969889253068 0.01345575323692655 0.023694669607474173 0.02483113816859335 0.06819698020548326 0.0011361778305346035 0.055474310898436491 0.008931616519336107 0.016520989357807995 0.10956841376276619 -0.026726305899289038 0.008701377110497361 0.10180133999608429 0.034491683411038192 0.057735070647411846 -0.0063420409955053016 0.038630883675601566 0.012268290825105678 0.054804354702845198 -0.002579758665821445 0.03420604305893464 0.062606635775375966 0.091633134443417155 0.026834516058726693 -0.017809187966986363 -0.0059819093317698474 0.11983336609979722 0.047786241776397169 -0.014614398040068758 0.025872004926200273 0.073975961393139736 0.030551803698847246 -0.0042133565395795014 -0.00065654494694047472 0.070640893180915945 0.020299652909257934 0.096854341847020811 0.10209049404222738 0.075343345672872181 0.04307852961898602 0.039831692752627171 -0.011240648054638456 0.011185945500321117 0.14084590312810119 0.090029314293619211 -0.01088429736915065 0.06398970669353149 0.023851636339922773 0.01354263329222621 0.089083540905398176
leaf_weight=64.700303494930267 633.30150617659092 65.843478731811047 7.2027665227651587 15.613017551600931 2.4244027286767951 17.310141287744045 6.7527933269739213 387.57692924886942 16.484639354050159 1.9725890755653406 19.935962960124016 81.982481144368649 30.883782416582108 5.7322504818439466 13.454006254673006 27.353037178516388 50.583455801010132 58.926208801567554 8.5848290324211138 141.652777813375 5.3750789612531689 22.199320912361145 265.79935946315527 105.94922071695328 6.7642573267221442 21.368717886507511 26.990209177136421 2.1516302749514606 8.2706906646490079 83.620957173407078 4.0364638194441795 22.287656247615814 12.687770918011664 9.281368136405943 23.889541856944565 5.9072107076644889 177.18488021194935 124.81772390007973 2.1424909979104987 21.635218672454357 30.388949356973171 7.9668786823749533 13.062638230621813 38.979078136384487 24.312646046280861 6.2766669467091578 13.731780163943766 67.975460402667522 4.111337646842002 2.3996068313717833 2.7353870570659637 8.863320663571356 4.4518976360559455 54.863921955227852 29.329156666994095 2.2236019223928452 32.453238926827908 314.57302025705576 11.939659915864466 43.088172249495983 4.4396557807922354 9.9883251562714559
leaf_count=781 7618 676 53 148 27 192 57 4547 156 20 141 687 214 60 126 249 420 634 68 1474 55 154 3176 1138 51 197 240 20 82 867 37 239 115 84 194 56 2027 1375 20 209 335 73 128 371 244 60 128 662 37 19 25 76 41 645 294 20 279 3530 116 423 45 96
internal_value=-8.69799e-05 -0.0117121 0.0454501 0.0175433 0.0109885 -0.0223741 0.0262634 -0.0138568 0.0732243 -0.00492612 0.081551 0.0740527 0.0912602 0.0323193 0.0416261 0.0525091 0.0759698 0.0143238 0.109939 0.0175889 0.0240956 0.0944831 -0.030015 -0.00579501 0.0539055 0.0592896 0.0505598 0.0205031 0.0282662 0.0171254 0.0509937 -0.0252124 0.0695534 0.0908052 0.065707 0.0787868 -0.0119996 -0.00390971 0.0465764 0.0290034 0.00350443 0.0632906 0.0572263 0.0416734 0.00666188 0.0317465 0.0515303 0.0266299 0.0481827 0.0355607 0.0224114 0.0680793 0.0760543 -0.0240768 0.016021 0.0853667 0.0839739 -0.00961524 0.0380968 0.0329155 0.0564714 0.0721707
internal_weight=3338.79 2659.78 679.01 338.695 850.013 1809.76 433.723 855.798 340.314 416.29 242.741 192.021 88.67 251.707 156.094 97.573 57.7862 111.863 50.7201 330.125 188.472 30.7841 953.965 468.221 103.598 103.351 96.8337 170.034 104.191 95.6133 11.9923 86.988 30.8644 16.0342 45.4098 29.7968 304.427 127.242 14.8303 52.937 136.338 70.22 18.4377 65.9693 32.5833 110.684 22.7438 87.9404 19.965 15.8536 9.01205 62.2531 45.7685 320.663 31.3017 6.26007 36.9051 331.883 71.6074 59.6678 16.5796 12.14
internal_count=36331 30064 6267 3459 8883 21181 4297 9742 2808 4586 1934 1571 687 2439 1455 874 473 1157 363 3359 1885 222 11439 5195 938 884 887 1702 1026 984 117 1020 276 141 398 250 3429 1402 135 523 1473 625 183 611 326 1057 213 844 182 145 85 552 396 3821 314 57 320 3722 700 584 161 116
is_linear=0
shrinkage=0.03


Tree=5
num_leaves=63
num_cat=0
split_feature=3 13 13 13 4 3 3 13 13 13 3 13 3 1 12 15 13 12 12 1 3 13 12 1 13 13 12 3 12 13 1 3 12 3 12 13 13 4 3 1 12 13 15 15 15 1 13 12 1 3 15 15 4 15 3 13 1 13 3 12 15 15
split_gain=1806.36 775.655 434.892 280.602 161.748 126.184 122.317 76.2104 54.1144 51.9748 38.8912 37.4815 33.7741 32.2891 31.6805 30.907 27.6808 23.2387 21.0405 19.7109 25.8186 28.6663 21.7009 16.8826 17.413 15.797 20.5428 15.6247 16.6412 17.2737 15.2892 15.1028 14.8623 17.8907 14.7582 20.2801 17.716 24.5249 17.5958 15.5978 15.5956 13.8528 18.9999 12.8549 12.6261 12.5631 12.5139 12.3012 12.243 12.1393 11.9295 11.8927 11.6623 11.6207 11.4374 11.1441 11.0561 11.7737 10.8912 10.8355 10.7085 10.6818
threshold=2.149626865671642 0.17573529411764707 0.11010101010101007 0.063903634136382156 5.5000000000000009 1.0683374844333751 1.0287784679089029 0.23205128205128203 0.32738095238095238 0.042109929078014162 6.6064844936022569 0.37171052631578955 7.9498754669987557 117.24000000000002 47.750000000000007 9.5000000000000018 0.021527777777777753 28.150000000000002 31.550000000000004 10535.350000000002 1.3668776371308018 0.28062500000000007 41.050000000000004 7136.1150000000007 0.24068965517241384 0.38675213675213677 42.250000000000007 1.4138637648388923 26.950000000000003 0.12861869313482219 18560.345000000005 7.61145442507173 34.550000000000004 1.1134219554030877 32.95000000000001 0.16064516129032258 0.13423423423423422 2.5000000000000004 3.0113132209405507 4732.0700000000006 29.950000000000003 0.14087301587301587 19.500000000000004 28.500000000000004 29.500000000000004 37751.760000000002 0.20294117647058824 26.750000000000004 13732.415000000003 5.0024390243902443 33.500000000000007 8.5000000000000018 2.5000000000000004 23.500000000000004 6.2542517006802729 0.24621212121212124 3004.8800000000006 0.23746867167919791 4.1103500761035017 34.95000000000001 23.500000000000004 25.500000000000004
decision_type=2 2 2 2 2 2 2 2 2 2 2 2 2 2 2 2 2 2 2 2 2 2 2 2 2 2 2 2 2 2 2 2 2 2 2 2 2 2 2 2 2 2 2 2 2 2 2 2 2 2 2 2 2 2 2 2 2 2 2 2 2 2
left_child=1 3 9 16 7 11 15 34 12 -2 -11 14 13 54 23 18 -1 58 -5 20 32 22 56 -3 -25 26 -9 44 53 -30 -20 -10 -7 55 36 -36 51 -38 39 43 49 47 48 -37 -8 -16 -21 -17 -43 -39 -31 -4 -35 -29 -6 -34 -22 -58 -15 -44 -24 -54
right_child=2 5 4 6 8 19 27 25 31 10 -12 -13 -14 17 45 41 -18 -19 30 46 21 -23 60 24 -26 -27 -28 28 29 50 -32 -33 33 52 35 38 37 40 -40 -41 -42 42 59 -45 -46 -47 -48 -49 -50 -51 -52 -53 61 -55 -56 -57 57 -59 -60 -61 -62 -63
leaf_value=-0.03291374628676684 -0.032281132824300542 0.061001046758306629 0.04410852262945468 0.12003899164053987 0.03630184965653848 0.12208620899689163 0.013840010990613143 0.043343780218658 0.050176476389550466 -0.012802700599813198 -0.027026956268301421 0.098747982386015329 -0.020180315969211601 0.11277477057459544 0.054349465426696678 0.086922983975736598 -0.0068670856410247838 -0.0077706726614191974 0.042899541508776604 -0.0034819140139494757 0.058453369961758116 0.065721044181998201 -0.00036851809979064138 0.072010326583995476 0.097004743549082312 0.062398510481005455 0.015023571095506125 0.077689228985191885 -0.0049710529462757861 0.011314340933408251 0.077428098273322463 0.0044161441178202079 -0.024773144190387324 0.08390916697257568 -0.012123445805748957 0.030119407228596837 0.082610787069134814 0.10056992843482065 -7.5360068209595995e-05 0.00067241604773968895 0.013526227898186909 0.0058143845836029356 0.099495675931287178 0.091066044891910225 0.039668325905718525 0.0082671842554621882 0.035764719096520917 0.024530950930479262 0.058373964229310446 0.018068340807952089 0.062767319750636152 -0.0012836043208227762 0.041436361957173581 -0.006095615474230833 0.12657811858130696 0.054415002727988493 0.022655481679818668 0.071362603194284946 0.025078919952019687 0.052195609715403476 0.06709438461302536 0.11170134344065985
leaf_weight=104.49291801452637 648.00056529790163 40.985121101140976 5.8019052743911734 4.7921058237552634 3.8649374097585669 4.1961141824722281 86.174939371645451 53.803664788603783 15.629904814064504 320.69558959454298 375.61774069815874 55.07970904558897 257.07332716137171 1.8463930189609516 34.641313873231411 2.9439375922083846 56.61825393140316 224.92207760363817 34.808056354522705 8.8255169540643674 22.30098269879818 32.452260084450245 19.614852376282219 52.992606103420258 47.636081717908382 17.302545540034771 40.332142189145088 4.5843458995223036 104.38475047796965 59.958994150161743 17.267199620604515 11.101681888103483 3.0619169250130644 23.923882454633713 63.50114993005991 22.976791076362137 6.4196166992187491 3.572744593024253 70.910984948277473 15.706003636121748 42.000254668295383 10.47049403935671 6.9250116348266628 3.603089526295661 21.23068680614233 6.2913953140377989 42.6335164681077 83.791018761694431 6.4431299790740004 2.9145881906151772 4.3497129753231993 49.636925771832466 14.178420513868334 2.2071545347571373 1.8761918395757673 3.3486649915575981 26.397284664213661 5.3762110918760291 4.1154706999659538 11.762527398765085 2.3738655149936667 2.257181964814662
leaf_count=1295 7996 314 63 34 41 34 863 506 145 3694 4525 368 3005 20 293 24 633 2484 305 85 203 267 190 410 335 151 386 49 1139 614 135 121 27 193 699 229 60 36 761 161 439 97 59 36 214 55 377 790 55 32 44 555 122 25 21 27 249 47 47 104 23 20
internal_value=-0.000100031 0.0319839 -0.0152937 0.0103317 0.000612319 0.0620659 0.0222181 0.0149963 -0.0104012 -0.0261663 -0.0204758 0.0770573 -0.0126522 -0.00447361 0.0705126 0.0416107 -0.0237603 -0.00622112 0.0598842 0.045178 0.0503872 0.0421149 0.0320433 0.0772317 0.0838423 0.0360526 0.0312101 0.00993339 0.00441756 0.00256391 0.0543486 0.0311721 0.0680003 0.0631479 0.00682173 0.00144614 0.0154297 0.0275084 0.00905841 0.0243752 0.020213 0.0331163 0.0488734 0.0383812 0.0189454 0.0472666 0.0290337 0.0266486 0.0258366 0.0635041 0.0147945 0.00346687 0.0705427 0.0504602 0.065804 0.016592 0.0422615 0.0308969 0.0522384 0.0697235 0.00691466 0.0510862
internal_weight=3335 1071.77 2263.23 623.205 918.912 448.567 462.094 398.482 520.43 1344.31 696.313 237.626 493.698 236.625 182.547 179.203 161.111 230.884 56.8674 210.941 159.482 108.515 76.0632 141.614 100.629 111.438 94.1358 282.891 175.485 168.693 52.0753 26.7316 50.9662 46.7701 287.044 176.698 110.346 54.9072 113.197 42.2859 48.4876 122.336 35.6012 26.5799 107.406 40.9327 51.459 86.735 16.9136 6.48733 64.3087 55.4388 40.3595 6.7915 5.74113 6.41058 54.0745 31.7735 5.96186 18.6875 21.9887 16.4356
internal_count=36331 10118 26213 6479 9998 3639 4551 4114 5884 16215 8219 1775 5618 2613 1407 1603 1928 2551 474 1864 1402 979 712 1059 745 1043 892 2948 1871 1797 440 266 423 389 3071 1886 1185 567 1187 426 507 1129 315 265 1077 348 462 814 152 68 658 618 335 74 62 54 499 296 67 163 213 142
is_linear=0
shrinkage=0.03


Tree=6
num_leaves=63
num_cat=0
split_feature=0 13 13 0 0 13 13 13 0 13 12 13 20 0 13 0 0 12 13 12 0 13 12 13 0 12 12 13 12 4 1 13 12 12 13 12 3 1 13 13 1 13 1 12 0 0 1 12 3 12 13 0 0 0 1 3 0 1 13 13 13 13
split_gain=1855.65 561.808 537.563 238.5 204.83 159.921 107.936 72.423 61.6924 59.8649 33.8296 27.598 35.3412 27.6044 27.3561 25.3106 23.5203 22.8976 22.7333 22.6074 22.2718 21.4839 25.4979 19.8051 19.6243 33.2518 21.0013 19.6945 16.7963 18.5294 15.1979 17.8031 15.0676 14.8669 17.4934 15.5761 14.6398 14.4445 16.7805 14.1885 13.7135 12.9182 17.6037 16.2971 12.7619 12.6454 24.9052 12.5499 11.594 11.5638 14.3079 11.3025 11.1833 10.9487 22.8559 10.3472 10.2267 10.4836 11.3176 10.1714 10.1313 12.3191
threshold=6.0100000000000007 0.075961538461538455 0.11483516483516476 3.0250000000000004 21.045000000000005 0.18469785575048728 0.21320346320346317 0.042109929078014162 17.540000000000003 0.028174603174603106 28.450000000000003 0.43875000000000003 1.0000000180025095e-35 4.705000000000001 0.30151515151515157 2.6100000000000008 2.6100000000000008 37.45000000000001 0.16172624237140362 38.750000000000007 13.505000000000001 0.30368906455862982 42.250000000000007 0.32738095238095238 4.705000000000001 27.850000000000005 38.650000000000013 0.13182720953326713 34.45000000000001 1.5000000000000002 28533.470000000005 0.31698564593301443 34.750000000000007 39.45000000000001 0.13423423423423422 31.350000000000005 1.7009148486981003 2857.0700000000002 0.17108013937282227 0.19139194139194138 2155.7850000000003 0.5634920634920636 7977.8200000000006 43.050000000000004 8.2050000000000018 5.1100000000000003 14376.300000000001 25.850000000000005 2.6752374713396665 63.900000000000006 0.60769230769230786 3.1050000000000004 18.550000000000004 34.020000000000003 163.61000000000004 1.3668776371308018 1.3950000000000002 49210.350000000006 0.4733893557422969 0.26006441223832527 0.20638945233265718 0.19722222222222222
decision_type=2 2 2 2 2 2 2 2 2 2 2 2 2 2 2 2 2 2 2 2 2 2 2 2 2 2 2 2 2 2 2 2 2 2 2 2 2 2 2 2 2 2 2 2 2 2 2 2 2 2 2 2 2 2 2 2 2 2 2 2 2 2
left_child=1 9 7 15 6 24 10 -2 -9 -1 -4 12 13 14 17 56 -11 39 19 -17 33 22 32 53 25 -5 27 51 29 -29 -20 -32 -8 34 -12 36 -36 38 -37 -7 -40 42 44 -44 -23 -14 -47 -18 -24 -13 -51 -27 -34 54 -6 59 -3 -58 -59 -19 61 -15
right_child=2 3 4 5 23 11 21 8 -10 16 20 49 45 60 -16 18 47 55 30 -21 -22 41 48 -25 -26 26 -28 28 -30 -31 31 -33 52 -35 35 37 -38 -39 40 -41 -42 -43 43 -45 -46 46 -48 -49 -50 50 -52 -53 -54 -55 -56 -57 57 58 -60 -61 -62 -63
leaf_value=-0.032818799690284166 -0.032013535777795019 0.12338566096441446 0.061778321189536571 0.11799088390706157 0.04969144840571272 0.045975073515773207 0.070471013803269408 -0.0095528234898585411 -0.025974413535417979 0.061260428004874107 -0.0028562090564095343 0.10506224365526524 0.031503544932057419 0.060511524836902128 0.12041911077340008 0.014561841373373262 0.040632641487043597 0.053937993777350091 0.083619499250681448 0.079448687510007582 -0.0066956832659424955 0.068497812545643591 0.019693963160799906 0.016687240050054175 0.012640608156981264 0.085639904610090356 0.010538527820508918 0.038493961354097023 0.033451969376996696 0.096956051171839225 -0.016706670905190058 0.073071331766069003 0.030319519195165817 -0.01069340548764598 -0.024328575065827824 0.0088511606937374358 0.045688283308161201 0.0031271088656868325 0.026101431957809861 0.10956831887535333 0.070537729103494859 0.08482538970764468 0.082016670664483635 -0.0046340281921974265 0.037553152548050049 0.083490578006294919 -0.0085520353367597689 -0.0057109241175398139 -0.011212269458673573 0.01772552235201216 0.092024127554665255 0.02049205029574349 -0.010375950947298698 -0.022102688103433486 -0.013313258616908748 0.02823542489151289 0.085733668963281565 0.030079071784321797 0.10052635263355382 0.088318830862311015 0.055067403733585318 0.010260943054962854
leaf_weight=84.473082475364208 655.22655220329762 5.9870415255427352 9.1032619923353177 3.7054883763194075 5.4170125573873511 4.0482480973005321 8.0050686150789243 370.20025226473808 463.90285456180573 6.5325344428420058 66.94682102650404 13.519208669662477 66.731310129165649 6.9249342754483232 9.9033472836017591 14.067658320069315 6.0600329712033263 29.113004177808762 34.189726956188679 7.3614128306508055 136.30187478661537 16.471109747886658 21.182610638439655 16.115984298288822 109.63576123863459 2.5015291422605506 47.728217475116253 8.9668134227395075 25.633201189339161 10.703682847321032 3.2276003062725049 5.1756623461842537 95.324441269040108 34.046971589326859 3.0647383853793171 47.325316891074181 21.843321569263935 87.045860663056374 28.013386115431786 14.352323852479456 8.0457006320357305 5.9345993921160689 2.325073964893817 12.222879409790037 44.133732363581657 11.395506948232649 3.4458371475338927 39.785268813371658 22.556583367288113 3.9025087952613813 5.7989969253540039 57.204215936362743 6.4912834092974654 182.97155448049307 119.42286247014999 9.506214611232279 115.02579692751169 6.3695599213242513 3.0281793773174286 10.551235951483248 42.209337428212166 11.998285487294197
leaf_count=1076 8300 40 92 28 60 31 72 4246 5681 54 746 90 553 59 66 126 64 221 238 64 1521 130 202 170 1091 23 455 74 231 93 26 35 895 357 29 494 213 886 279 98 80 41 22 116 391 95 30 418 226 28 37 552 70 2165 1389 81 800 48 18 72 340 103
internal_value=-0.000111514 0.0384232 -0.0131249 0.0492361 0.00388479 0.0384484 0.0132794 -0.0245494 -0.018686 -0.0171946 0.00454497 0.0560218 0.0527412 0.0619617 0.0738543 0.0775035 0.00800358 0.0670296 0.0620552 0.0368521 0.00334069 0.0297224 0.023126 -0.0157318 0.0223729 0.0291933 0.0270391 0.0345388 0.0494537 0.0703061 0.0747353 0.0385886 0.0308408 0.00795706 0.0103781 0.0149137 0.0370733 0.0116752 0.0205986 0.0955774 0.0360163 0.0422144 0.0388495 0.00921461 0.0459633 0.037074 0.0621203 0.000414972 0.00375542 0.0871282 0.0621369 0.0232216 0.027725 -0.0174291 -0.0105794 0.0563465 0.0850874 0.0832446 0.0527789 0.0630838 0.0468901 0.0286501
internal_weight=3330.4 840.763 2489.64 703.912 1000.31 509.479 676.385 1489.33 834.103 136.851 441.737 243.4 220.18 138.607 77.4744 194.433 52.3778 67.571 64.0221 21.4291 432.634 234.647 153.56 323.927 266.079 156.443 152.738 105.009 45.3037 19.6705 42.593 8.40326 109.821 296.332 262.285 195.338 24.9081 170.43 83.3844 18.4006 36.0591 81.0874 75.1528 14.548 60.6048 81.5727 14.8413 45.8453 43.7392 23.2207 9.70151 59.7057 101.816 307.811 124.84 49.1705 130.411 124.424 9.39774 39.6642 61.1326 18.9232
internal_count=36331 7458 28873 5846 10646 4451 6862 18227 9927 1612 4697 1904 1749 1071 569 1395 536 503 489 190 4605 2165 1465 3784 2547 1456 1428 973 398 167 299 61 1037 3084 2727 1981 242 1739 853 129 359 700 659 138 521 678 125 482 428 155 65 575 965 3614 1449 374 906 866 66 293 502 162
is_linear=0
shrinkage=0.03


Tree=7
num_leaves=63
num_cat=0
split_feature=0 13 13 0 13 0 13 13 0 0 12 13 13 13 13 20 0 13 13 1 12 0 1 3 1 0 0 1 12 13 1 3 13 12 12 12 12 13 17 12 13 3 12 12 0 12 0 12 1 3 0 1 13 12 0 1 0 1 4 12 0 12
split_gain=1723.6 555.471 436.328 265.935 176.891 160.785 81.176 64.9407 54.1133 42.8419 30.9487 27.0997 26.6742 26.0336 23.9337 23.5949 28.0411 18.8913 18.823 18.1 17.486 24.5322 16.6391 21.5163 15.4605 15.3188 14.7881 15.8154 14.6827 20.0786 18.3787 14.3323 14.0826 21.4458 13.9736 13.9458 13.3522 13.3044 12.964 12.8598 18.0154 12.6662 11.7019 11.4305 17.0986 11.3275 14.2631 13.7106 13.1931 11.2227 12.6723 14.794 11.1793 10.769 10.7361 21.0604 9.97398 12.2793 9.96754 11.2382 9.76186 19.6092
threshold=6.8100000000000014 0.058257918552036152 0.11483516483516476 3.3600000000000008 0.18469785575048728 21.045000000000005 0.21320346320346317 0.042109929078014162 17.540000000000003 2.6100000000000008 28.450000000000003 0.19139194139194138 0.4045454545454546 0.028174603174603106 0.13100686498855832 1.0000000180025095e-35 4.705000000000001 0.32738095238095238 0.26568627450980392 37751.760000000002 38.150000000000013 5.0150000000000015 4642.1250000000009 1.1531004547333612 6782.3700000000008 13.505000000000001 3.2750000000000004 10186.180000000002 34.45000000000001 0.13423423423423422 5911.4900000000007 1.8083649081900324 0.30368906455862982 42.250000000000007 31.650000000000002 37.750000000000007 34.750000000000007 0.29814814814814822 1.0000000180025095e-35 30.050000000000004 0.12060606060606062 1.3476719087264881 37.45000000000001 40.150000000000013 10.990000000000002 38.750000000000007 2.9700000000000002 41.95000000000001 14376.300000000001 1.7509124087591244 6.0100000000000007 6603.0850000000009 0.17192118226600986 31.350000000000005 34.020000000000003 163.61000000000004 1.7750000000000001 49210.350000000006 1.5000000000000002 34.45000000000001 4.9050000000000011 27.850000000000005
decision_type=2 2 2 2 2 2 2 2 2 2 2 2 2 2 2 2 2 2 2 2 2 2 2 2 2 2 2 2 2 2 2 2 2 2 2 2 2 2 2 2 2 2 2 2 2 2 2 2 2 2 2 2 2 2 2 2 2 2 2 2 2 2
left_child=1 13 7 9 14 6 10 -2 -9 56 -4 34 15 -1 39 16 18 54 35 42 21 58 23 38 -18 28 27 -15 29 -12 52 -25 33 36 -11 -6 -8 -21 -17 40 60 -20 -13 44 -34 -36 48 -48 -47 -22 51 -51 -30 -31 55 -7 -3 -58 -16 -60 61 -5
right_child=2 3 5 4 12 17 32 8 -10 11 25 19 -14 26 20 22 24 -19 41 37 49 -23 -24 31 -26 -27 -28 -29 30 53 -32 -33 43 -35 45 -37 -38 -39 -40 -41 -42 -43 -44 -45 -46 46 47 -49 -50 50 -52 -53 -54 -55 -56 -57 57 -59 59 -61 -62 -63
leaf_value=-0.032730219778185854 -0.032022427709904801 0.092801630443255984 0.057276147793413175 0.076959628325720855 0.079720952951798235 0.046309376345557846 0.065402811085445392 -0.0097792437675084439 -0.025747732402686636 0.071971029716497256 -0.0033084841848337399 0.10934850321731615 0.076333649536438397 0.098935277707462008 0.030523357666276969 -0.035354702176576422 0.050966977014725003 0.015972547308985018 0.10856554335514199 -0.025648136458684356 -0.00043757845977946585 0.01766840812745591 0.023300652859398096 0.10276416737420943 0.025578382769586166 -0.006530279074756353 -0.01133424533595043 7.7551523344710342e-06 -0.0056217880534053955 0.038786113928683731 -0.024970207566336736 0.036420914620731153 0.12834127687826857 0.0011029147092760769 0.020208319757289709 0.046163729387825585 0.024477503366096651 0.053413922921862408 0.050111602146051551 0.0046435443708896162 0.087955657523873576 0.041249608167166565 0.067396612488482263 0.032863023375842015 0.032999704391492496 0.11060654018731284 0.080482467199598812 0.0064349535699603838 0.036098914127956933 0.11945700586263515 -0.0117151913876341 0.01579982220831707 0.015339521418761036 0.014885588047993732 -0.021835465498103161 -0.013056160913414053 0.076058627659324946 0.034302951180198868 0.078307605931528648 0.041012998078312594 0.0073449917328335104 0.014536427316297599
leaf_weight=97.399715840816498 620.49599558115005 30.849286608397961 9.2017178237438184 6.4165865629911449 17.245327509939671 5.634761154651641 7.7888053506612769 329.64099377393723 454.09621424227953 9.4936539530754072 46.989883467555046 6.7161078527569762 28.554859086871147 2.4805317148566273 17.908838115632534 2.9343329817056683 58.43606024980545 16.328653998672962 12.939161829650404 3.005108565092085 28.51386920362711 48.116677597165108 55.132013447582722 8.0259928703308088 34.232831880450249 135.57283608615398 25.989456757903099 3.5159132406115532 48.501685321331024 22.628078065812588 24.495966769754887 4.6162578314542762 2.937539041042327 37.679064050316811 28.920116424560547 31.51315176486969 91.018480136990547 5.2835591956973076 3.5056423917412758 142.89583130180836 3.4275817796587935 3.1228066161274901 54.901590049266815 64.676549889147282 3.995674729347229 4.9461759850382823 3.1258647814393035 8.0362097546458227 3.7685113549232483 2.5430262833833686 2.7110268622636795 2.4168333262205124 43.380856946110725 67.816991224884987 179.70415931940079 118.14089438319206 103.94236324727535 6.7500935792922965 14.020524851977827 15.107617713510988 35.110678941011429 15.396788403391836
leaf_count=1274 8073 197 89 53 117 60 67 3825 5681 77 525 41 189 24 153 23 467 170 83 24 271 460 463 62 290 1521 295 34 525 214 260 38 24 371 249 241 855 35 27 1449 31 24 372 549 35 41 27 70 29 25 27 24 440 687 2165 1389 691 47 116 136 364 146
internal_value=-0.0001223 0.0329545 -0.0142283 0.0416302 0.0304261 0.00175184 0.0108256 -0.0247718 -0.0190314 0.0663381 0.00289648 0.0537753 0.0489753 -0.0250186 0.0159976 0.0456036 0.0521754 -0.0154612 0.0673112 0.0663705 0.025979 0.0327292 0.0316577 0.0558029 0.0415882 0.00161142 -0.00153604 0.0409308 0.00596025 0.0126 -0.00188088 0.0785392 0.026013 0.0203601 0.0386701 0.0580325 0.0277036 0.0247495 0.0111694 0.00954766 0.0211592 0.0954778 0.0719692 0.0367873 0.0733951 0.0321913 0.0496262 0.0271715 0.078387 0.00822807 0.0404396 0.0689471 0.00427476 0.0208652 -0.0171525 -0.0103536 0.0777165 0.0735123 0.0481357 0.0589644 0.0171372 0.0328987
internal_weight=3324.69 993.969 2330.73 864.583 594.844 926.493 606.684 1404.23 783.737 269.739 398.588 128.197 260.258 129.386 334.586 231.704 157.489 319.808 64.8204 69.9064 131.338 95.1537 74.2142 19.0822 92.6689 389.386 31.9859 5.99644 253.813 137.435 116.379 12.6423 208.096 136.486 58.2905 48.7585 98.8073 8.28867 6.43998 203.247 60.3516 16.062 61.6177 71.6098 6.93321 48.7969 19.8768 11.1621 8.71469 36.1848 7.67089 4.95986 91.8825 90.4451 303.48 123.776 141.542 110.692 47.037 29.1281 56.9241 21.8134
internal_count=36331 8806 27525 7179 5279 9946 6162 17579 9506 1900 4261 965 2024 1627 3255 1835 1222 3784 465 472 1212 865 613 150 757 4172 353 58 2651 1426 1225 100 1901 1293 493 358 922 59 50 2043 594 107 413 608 59 416 167 97 70 347 76 49 965 901 3614 1449 935 738 405 252 563 199
is_linear=0
shrinkage=0.03


Tree=8
num_leaves=63
num_cat=0
split_feature=3 13 13 13 4 3 3 13 13 13 4 13 14 3 13 13 15 13 12 12 13 14 15 1 15 1 14 4 13 14 3 3 14 12 13 3 4 3 14 13 1 1 12 13 12 1 14 12 3 3 12 1 6 15 13 6 15 13 3 13 15 3
split_gain=1464.53 583.877 362.653 217.565 118.709 102.499 86.6429 52.9597 47.9023 45.2259 34.7699 31.1292 36.0876 29.6434 26.7041 24.8472 22.6954 20.5378 21.3175 20.3733 20.3088 19.0163 18.585 17.1374 16.0409 14.1399 13.6402 13.1438 13.0002 12.9008 12.433 11.2487 11.2354 11.1208 16.3084 15.213 12.841 10.4723 10.4471 17.8359 10.3945 10.2796 10.2589 11.907 10.0941 10.8258 10.7545 10.0413 10.0875 9.9453 9.90147 9.87496 9.74422 9.46276 8.99726 8.97389 18.7242 8.95806 10.2901 8.83764 10.2784 10.2371
threshold=2.3261570343080824 0.16064516129032258 0.11010101010101007 0.063903634136382156 5.5000000000000009 1.048199767711963 1.048199767711963 0.23205128205128203 0.042109929078014162 0.32738095238095238 5.5000000000000009 0.36602870813397131 0.44636015325670503 10.433218642477325 0.021527777777777753 0.23746867167919791 8.5000000000000018 0.26794871794871794 41.050000000000004 27.350000000000005 0.18834459459459463 0.22335600907029476 46.500000000000007 117.24000000000002 28.500000000000004 10535.350000000002 0.68301435406698574 3.5000000000000004 0.45227272727272733 0.73030303030303034 7.61145442507173 6.6064844936022569 0.30151515151515157 32.95000000000001 0.16496598639455778 3.0113132209405507 3.5000000000000004 1.4577380952380954 0.19292803970223327 0.10762548262548262 14376.300000000001 1740.9150000000002 39.250000000000007 0.41421568627450983 31.950000000000003 9591.7900000000027 0.49285714285714294 33.350000000000001 1.1531004547333612 2.1821789321789327 34.650000000000013 4371.3050000000012 20.500000000000004 13.500000000000002 0.38675213675213677 43.500000000000007 14.500000000000002 0.13423423423423422 2.4721362229102173 0.11952380952380952 20.500000000000004 1.6514837819185648
decision_type=2 2 2 2 2 2 2 2 2 2 2 2 2 2 2 2 2 2 2 2 2 2 2 2 2 2 2 2 2 2 2 2 2 2 2 2 2 2 2 2 2 2 2 2 2 2 2 2 2 2 2 2 2 2 2 2 2 2 2 2 2 2
left_child=1 3 8 14 7 11 16 33 -2 13 -10 12 15 19 -1 21 44 18 20 -6 24 -3 27 -21 47 42 -13 32 -28 -14 -11 -12 41 36 -35 51 57 -22 39 40 -18 -8 -19 49 -5 -46 -47 -7 -49 -44 -9 -36 -34 -27 -52 56 -29 58 -4 -43 -61 -62
right_child=2 5 4 6 9 17 22 50 10 30 31 26 29 -15 -16 -17 38 25 -20 23 37 -23 -24 -25 -26 53 28 55 -30 -31 -32 -33 52 34 35 -37 -38 -39 -40 -41 -42 59 43 -45 45 46 -48 48 -50 -51 54 -53 -54 -55 -56 -57 -58 -59 -60 60 61 -63
leaf_value=-0.032642266305785969 -0.031945525238592003 0.098086445319642585 0.076960487695483248 0.098750293106756634 0.10266022727641813 0.035161390615809737 0.034937097479236949 0.080856238212067763 -0.0093674218069036523 0.043913679689833174 -0.017768494172348669 0.095916203200013248 0.048155703218598099 -0.021198076468203889 -0.0078822657484939815 0.087063167022285878 0.015941809646995708 0.089984513416159359 0.012741438515636179 0.036363357965064971 0.056747059332323976 0.050814457928617981 0.088573867164131626 -0.0078361493675726309 0.055966797225580095 0.039777151940695782 0.039214969581956236 0.086441602740165449 0.078297993238780436 0.022012132798235776 0.0031602992291766821 -0.027890782901908207 0.054248992020805346 -0.012540500055863666 0.036847688222739573 -0.00037755814371114065 0.005666991105455055 0.035654502599610186 0.022518440348695025 0.080191958109233255 0.078788534177724981 0.0056384832210384832 0.048172198575144071 0.079124123000506696 0.025603811780877304 0.065440499347680078 0.011539691482719825 0.048748579755462304 -0.00032677429528175678 0.00033146726335323576 0.024583687070747793 0.0022984122740189335 -0.003958972251457196 0.0043391181574498937 0.048343971841093729 -0.0061299791279114738 -0.0010034678334514162 0.043036933234795752 0.0023489527504039084 0.0065118579133022474 0.057578132251328441 0.0081841619891013379
leaf_weight=105.11781749129295 587.60122058540583 8.7838547900319082 1.8991960957646359 3.7231708765029898 1.546106383204459 15.087671443819998 20.497567683458328 3.3601241931319228 191.07443451136351 16.38720623403788 145.76984766870737 25.086792558431625 100.90498536080122 194.16882586479187 62.518894538283348 38.187289297580719 14.144101522862917 6.4295278266072264 50.853598229587078 8.1329353302717191 36.611222043633461 59.796239249408245 2.446610525250434 269.8863127976656 10.259765796363352 25.849697045981884 10.606503956019877 3.0003427416086188 27.570735782384872 20.426367059350014 11.441282778978346 306.68682630360126 2.7284230813384047 57.728674061596394 20.707637339830399 71.413599580526352 71.216508775949478 50.278042502701283 102.81594983488321 8.2675151824951154 2.8449593409895888 69.303907737135887 47.139262564480305 10.599762149155138 13.933149740099905 24.064515203237537 3.8668448477983466 4.3086187392473212 30.133497536182404 4.264593392610549 86.376758806407452 11.625742740929125 50.420872904360294 9.193175904452799 17.199351206421852 91.155396580696106 8.3012370243668538 17.47161440551281 13.411487072706221 14.766154967248442 11.119238674640657 5.7184989154338828
leaf_count=1413 7854 53 20 23 18 137 207 27 2273 140 1769 141 718 2391 713 214 121 47 462 84 277 420 24 3057 89 200 70 32 154 164 121 3950 28 645 196 758 768 434 902 63 19 711 352 71 122 166 32 37 284 36 775 117 518 78 137 994 89 164 146 142 106 58
internal_value=-0.000131624 0.0261227 -0.0152614 0.00579141 -0.000482835 0.0474282 0.0165942 0.0123483 -0.0257527 -0.01001 -0.0200981 0.0601123 0.054948 -0.0121934 -0.0234082 0.0676686 0.0332356 0.0351507 0.029479 -0.00593924 0.035282 0.0568691 0.0062529 -0.00654318 0.0218249 0.0459777 0.0787319 0.00552583 0.0674398 0.0437544 0.0271585 -0.0246296 0.0105324 0.00516816 0.000240532 0.00735237 0.0128191 0.044542 0.0267651 0.0440527 0.026466 0.0155683 0.0539135 0.0501731 0.0514135 0.0472037 0.0579784 0.0147527 0.00581242 0.0442032 0.0301734 0.0244252 -0.000970862 0.0304803 0.0285292 -0.00300376 0.0222114 0.0283565 0.0116041 0.0116339 0.0247812 0.0408028
internal_weight=3318.23 1213.13 2105.11 620.755 873.973 592.371 453.118 372.411 1231.13 501.563 643.531 291.363 228.099 473.734 167.637 106.767 173.66 301.008 197.532 279.565 146.679 68.5801 279.458 278.019 59.7896 103.476 63.264 277.012 38.1772 121.331 27.8285 452.457 174.555 265.474 161.476 103.747 103.999 86.8893 128.073 25.2566 16.9891 121.405 68.4331 62.0036 45.5877 41.8645 27.9314 49.5298 34.4421 51.4039 106.936 32.3334 53.1493 35.0429 103.576 102.457 11.3016 32.7823 15.3107 100.908 31.6039 16.8377
internal_count=36331 10921 25410 6483 9564 4438 4357 3753 15846 5811 7992 1934 1569 5550 2126 687 1448 2504 1720 3159 1258 473 2909 3141 547 784 365 2885 224 882 261 5719 1770 2814 1716 1071 1098 711 1105 203 140 1224 506 459 343 320 198 458 321 388 939 313 546 278 912 1115 121 330 166 1017 306 164
is_linear=0
shrinkage=0.03


Tree=9
num_leaves=63
num_cat=0
split_feature=0 13 13 0 0 13 13 13 0 0 12 13 13 13 13 1 0 1 0 12 0 20 13 3 0 12 12 13 12 13 12 12 13 1 3 12 12 13 13 12 0 12 3 0 1 12 0 0 13 1 13 12 0 1 1 13 12 0 12 1 3 12
split_gain=1502.05 463.369 410.291 210.464 143.977 139.756 70.2109 65.2251 52.508 34.0748 28.099 25.6969 20.4385 20.2957 20.201 17.8746 17.8428 15.0619 14.9585 14.9458 20.4235 14.6637 22.9959 17.5528 13.6704 15.6998 13.5429 17.0056 17.9404 13.1973 14.3734 13.1342 17.7664 17.6034 11.9063 11.6802 11.6605 14.7426 11.4828 11.0838 10.9695 26.5392 10.4407 11.0202 11.8832 10.2206 16.75 9.95955 9.81588 9.78439 9.6245 14.5862 14.6642 17.3391 10.1854 9.60935 9.38774 11.6958 11.9367 10.7383 9.3481 9.33398
threshold=6.8100000000000014 0.058257918552036152 0.11483516483516476 3.3600000000000008 22.010000000000002 0.18469785575048728 0.21320346320346317 0.042109929078014162 17.540000000000003 2.6100000000000008 28.450000000000003 0.028174603174603106 0.19139194139194138 0.4733893557422969 0.13100686498855832 6603.0850000000009 5.7200000000000015 37751.760000000002 13.505000000000001 38.150000000000013 5.0150000000000015 1.0000000180025095e-35 0.26568627450980392 1.3049516908212564 3.2750000000000004 27.850000000000005 34.45000000000001 0.2752525252525253 38.550000000000004 0.24621212121212124 34.250000000000007 34.45000000000001 0.13423423423423422 5911.4900000000007 1.5039606411287829 31.650000000000002 30.050000000000004 0.10762548262548262 0.29814814814814822 42.850000000000001 9.2100000000000026 35.550000000000004 1.7509124087591244 6.0100000000000007 6603.0850000000009 34.150000000000013 5.410000000000001 3.8250000000000006 0.17192118226600986 1447.9450000000004 0.074537037037037013 27.850000000000005 7.0200000000000005 3514.3350000000005 1973.8700000000001 0.4733893557422969 38.750000000000007 2.9700000000000002 45.250000000000007 12645.115000000003 1.9074544012688346 42.250000000000007
decision_type=2 2 2 2 2 2 2 2 2 2 2 2 2 2 2 2 2 2 2 2 2 2 2 2 2 2 2 2 2 2 2 2 2 2 2 2 2 2 2 2 2 2 2 2 2 2 2 2 2 2 2 2 2 2 2 2 2 2 2 2 2 2
left_child=1 11 7 9 6 14 10 -2 50 -3 -4 -1 35 15 36 45 21 -14 31 20 -16 22 39 -24 25 -13 49 40 -29 -6 -31 32 -12 48 -30 -11 37 -5 -19 47 41 -28 -21 44 -44 46 -7 -17 -33 -8 -9 54 53 -53 -52 -36 -37 59 -59 -58 -39 -42
right_child=2 3 4 5 29 13 26 8 -10 12 18 24 17 -15 19 16 -18 38 -20 42 -22 -23 23 -25 -26 -27 27 28 34 30 -32 33 -34 -35 55 56 -38 60 -40 -41 61 -43 43 -45 -46 -47 -48 -49 -50 -51 51 52 -54 -55 -56 -57 57 58 -60 -61 -62 -63
leaf_value=-0.032558398234210195 -0.031813030142203116 0.06813115765848736 0.053014231705862287 0.012030883169105895 -0.018523146692460777 0.11875827793532201 0.11380248138425325 -0.017181766087107996 -0.025313941068797634 0.063982397901842084 -0.003328834155660894 0.10398532113950312 0.062843886670488874 0.07118263843321769 0.043232441707630825 0.063960916481302782 0.0090929301144861887 -0.026002037344560868 -0.0065587201505182173 -0.0010631559469701226 0.016015310267269222 0.025723358163817659 0.090994871190825694 0.027186565794491076 -0.010915503760867352 0.0036038002153017668 0.11697451726053332 0.084721382763365702 -0.01729903285152451 0.080461334113395067 -0.0048563016342448506 -0.0053662155990250151 0.019306225802434102 -0.024768684565984508 0.026737353957709108 0.018007920162462328 0.0040502067978749265 0.061003071478419213 0.046166959879178689 -0.017248027706545904 0.012637863947471068 0.020012093072552212 0.10550522223965379 -0.011542545007837187 0.014976556715276073 0.047091701304590429 0.026743788881451614 0.030949419092653068 0.014204494674972845 0.037734254261072103 0.022300562657472645 -0.013517903408719098 -0.010962113864289132 0.088720578485970897 -0.0096985355671065122 0.056605171598323477 0.10398935052464349 0.058344563572883389 -0.0027474488443818548 0.039749023894745494 -0.0012338812110458406 -0.013777490150081876
leaf_weight=92.231986075639725 588.25084783136845 152.88709927350283 9.6247256472706777 48.817430593073368 245.67029228061438 4.6122878938913336 2.4164787679910651 98.974482178688049 435.97806654125452 10.188161358237265 47.013277642428875 2.1626186966896084 66.549022331833839 21.618674792349339 49.723252661526203 11.269239149987696 22.560692079365253 3.0518004819750768 144.95352831482887 28.966644756495953 49.531286172568798 47.944004058837891 14.819313108921053 5.2562142461538306 25.575802437961102 3.9883152991533279 2.7641115039587012 5.2474978044629088 5.0018985271453849 1.8434461280703534 49.415251955389977 48.113902121782303 92.837759040296078 24.110021978616714 83.823896273970604 29.973753862082958 144.83841352909803 10.319986552000044 5.6720545366406441 3.2999102324247351 60.274039290845394 31.407973431050777 2.7874350398778907 2.6932523474097252 2.4537133872509003 112.11726853996515 2.9000165686011314 30.451661482453346 44.304187066853046 4.1106042414903641 24.839239746332169 3.0326637327671042 181.07579335570335 2.9404864087700844 13.997427761554716 10.962444618344305 4.2925364151597041 5.1283448338508588 6.5610042363405228 5.1533700153231621 2.7510614469647399 15.044083997607229
leaf_count=1274 8073 935 89 477 3036 30 20 1219 5681 77 525 19 413 129 405 75 194 24 1647 271 460 373 90 40 295 39 23 42 40 20 546 525 901 260 712 249 1449 90 35 26 572 283 25 27 24 818 23 226 440 33 282 34 2101 31 158 78 32 41 56 38 27 154
internal_value=-0.000138961 0.0298644 -0.0137463 0.0372829 0.00159683 0.0274184 0.00969224 -0.0243111 -0.0185109 0.0584028 0.00235874 -0.0245472 0.0475122 0.043273 0.0146172 0.040909 0.0334521 0.0579851 0.00114392 0.0235897 0.0296502 0.0383137 0.0475866 0.0742885 -0.00125822 0.0388971 0.0233259 0.0220306 0.0306544 -0.0156342 -0.00178797 0.0054989 0.0116971 -0.00193983 0.0278112 0.0346514 0.00870762 0.0196074 0.0209206 0.0356798 0.0137577 0.0278552 0.00728852 0.0377785 0.063123 0.0493615 0.0832374 0.0398662 0.00401576 0.0658965 -0.00938087 -0.00596281 -0.0094365 0.0368125 0.0107675 0.0301917 0.0288045 0.0441161 0.0240548 0.068942 0.0479041 0.00736165
internal_weight=3311.18 1033.15 2278.03 909.189 928.939 619.732 632.01 1349.09 760.838 289.457 410.957 123.959 136.57 276.849 342.882 255.231 135.601 75.2729 401.333 136.156 99.2545 113.04 65.0963 20.0755 31.7267 6.15093 221.053 214.526 105.036 296.929 51.2587 256.379 139.851 116.528 99.7882 61.2972 206.727 61.8885 8.72386 45.0208 109.49 34.1721 36.901 7.9344 5.24115 119.63 7.5123 41.7209 92.4181 6.52708 324.86 225.886 187.049 5.97315 38.8367 94.7863 51.109 21.1353 11.6893 9.44591 13.071 75.3181
internal_count=36331 8806 27525 7179 9946 5279 6344 17579 9506 1900 4387 1627 965 2024 3255 1895 1024 472 4298 1212 865 830 457 130 353 58 1957 1904 872 3602 566 2651 1426 1225 830 493 2043 594 59 327 1032 306 347 76 49 871 53 301 965 53 3825 2606 2166 65 440 790 416 167 97 70 117 726
is_linear=0
shrinkage=0.03


Tree=10
num_leaves=63
num_cat=0
split_feature=3 19 19 3 12 3 3 12 4 15 12 14 15 14 15 12 4 14 12 4 4 12 3 14 12 1 15 4 15 1 12 1 14 1 14 3 1 15 14 3 6 12 1 3 12 12 3 3 15 1 14 1 15 4 15 1 1 12 15 1 15 14
split_gain=1284.35 427.739 224.739 125.28 100.441 65.9465 56.7408 42.3288 41.4235 38.8506 23.7678 31.4329 21.5333 20.9694 18.2735 18.0245 16.594 15.9372 15.9451 15.3948 14.1175 13.8861 13.0379 12.625 19.2355 13.9731 21.4903 11.9222 11.6934 11.1877 10.9038 10.8258 12.5626 10.7388 10.4972 10.4735 10.376 11.0914 9.95041 10.3272 9.93741 9.83156 9.77111 9.48214 9.97347 9.00274 8.84824 13.5193 8.88058 11.2954 9.62383 10.7818 8.74194 8.54179 8.41647 8.75807 8.34619 9.90495 11.3707 10.6549 10.5018 8.19925
threshold=2.5707610146862487 1.0000000180025095e-35 1.0000000180025095e-35 1.048199767711963 25.550000000000004 7.9498754669987557 1.048199767711963 25.050000000000004 5.5000000000000009 4.5000000000000009 31.250000000000004 0.21525096525096524 4.5000000000000009 0.40312500000000007 29.500000000000004 36.650000000000013 3.5000000000000004 0.19478319783197831 28.350000000000005 4.5000000000000009 3.5000000000000004 34.650000000000013 1.4577380952380954 0.44058823529411767 35.550000000000004 9042.9450000000015 19.500000000000004 9.5000000000000018 18.500000000000004 5394.7350000000015 33.250000000000007 6166.7650000000003 0.14854215918045702 12645.115000000003 0.96666666666666667 5.8776844070961731 1513.8600000000004 8.5000000000000018 0.3506756756756757 2.7887885923600213 30.500000000000004 41.050000000000004 3641.2150000000006 7.7296157450796636 38.850000000000001 37.550000000000004 1.3668776371308018 1.532657123898 7.5000000000000009 1243.5850000000003 0.42206477732793524 6166.7650000000003 5.5000000000000009 2.5000000000000004 16.500000000000004 8722.1150000000016 10876.270000000002 30.950000000000003 20.500000000000004 9333.6000000000004 6.5000000000000009 0.094494047619047616
decision_type=2 2 2 2 2 2 2 2 2 2 2 2 2 2 2 2 2 2 2 2 2 2 2 2 2 2 2 2 2 2 2 2 2 2 2 2 2 2 2 2 2 2 2 2 2 2 2 2 2 2 2 2 2 2 2 2 2 2 2 2 2 2
left_child=1 3 4 9 -2 16 13 -5 21 -1 17 -12 -9 54 20 -8 -6 18 -11 -7 56 35 29 24 -13 26 -26 36 38 42 -24 -20 -33 34 46 -4 37 43 -23 -40 -27 -39 -16 52 -45 -25 53 -48 49 -49 -50 -52 -10 -17 -3 -56 57 61 60 -60 -59 -14
right_child=2 6 8 7 5 19 15 12 27 10 11 23 14 -15 22 33 -18 -19 31 -21 -22 28 30 45 25 40 -28 -29 -30 -31 -32 32 -34 -35 -36 -37 -38 41 39 -41 -42 -43 -44 44 -46 -47 47 48 50 -51 51 -53 -54 -55 55 -57 -58 58 59 -61 -62 -63
leaf_value=-0.032470980623746031 -0.030618057413737933 0.083652127640279378 0.031178248154580035 -0.026839087916046545 0.0013593335742560339 -0.0024290001184309406 0.064337913039578823 -0.032476209067842411 0.030742082473412556 0.0098135287361387387 0.078013202183537106 0.023309283819868763 0.027734224696702191 0.052351652632459611 0.033096825692182141 0.057378337269581817 -0.010899355427985091 -0.0052913619263628611 0.019622592149421771 -0.024436756467657299 -0.0037676054979388844 0.01237779058255566 0.0008264274667698885 -0.0053532120503098713 0.0097068160548377611 0.098533754841480858 0.063371746639359405 -0.019367162591968991 0.0053887141156178636 0.0084801002970127139 0.029608746149048969 0.11568973658918051 0.042249453178263036 0.019619030230018021 0.081804427618690292 0.10753539633211065 -0.0068393172306317647 -0.0078842773875753159 0.072812605006665282 0.029678299487138373 0.050270577513354037 0.026871208426604634 0.078486787950151196 0.035799838514164753 -0.025983671685844353 0.023704919114309025 0.008108698890981491 0.096622161337279369 0.042883355076820423 0.04216575226522349 0.031188999066010636 -0.0021615837534195771 0.09142473731890792 0.028942277729526449 0.026393999859417913 0.0731987483647039 -0.0071046354572063281 0.022202261973777834 0.022847829003550885 0.083446249731305128 0.0030115908528019009 -0.0030573737034106018
leaf_weight=10.053922235965727 521.07490354776382 31.945169731974602 3.5832558795809737 41.712594240903854 120.91147771477699 30.471204489469528 18.190055988729 13.8048008531332 5.9651545211672801 27.653038620948792 12.646508090198038 73.580777905881405 8.760223411023615 174.14690458029509 14.2480348199606 26.732715532183647 558.11484302580357 28.149106599390507 7.100161641836169 467.48262845724821 170.43781662732363 29.305685736238956 39.469878897070885 11.315734416246412 19.364769674837593 4.1943960562348357 10.281655952334402 26.099391832947731 32.548596419394016 10.430095404386519 16.925770856440067 3.3063781112432462 5.727859191596508 41.824167355895042 4.5090462267398825 2.9458717480301857 47.73926467448473 24.805398412048817 5.5471594855189315 50.231079570949078 45.388904191553593 10.394827604293821 6.0940771102905265 5.6412809118628484 4.0323027595877647 63.133065097033978 19.175255380570889 4.053389415144923 30.273037999868393 22.219492323696613 27.122967027127743 12.861039273440836 3.3289495632052422 14.754454687237738 5.5171001702547064 10.344328686594961 32.27897734940052 36.61138379573822 38.412906415760517 2.8018545210361472 85.829778738319874 69.777675583958626
leaf_count=143 7299 165 27 574 1364 378 133 196 53 278 82 607 91 1074 136 181 6660 294 60 6154 1861 254 443 107 160 28 78 306 305 93 163 21 44 327 28 25 486 284 45 432 310 109 54 63 44 498 147 28 240 163 223 110 29 107 32 57 317 349 368 26 850 768
internal_value=-0.000146092 0.0223109 -0.0157278 0.0105303 -0.0196524 -0.0147976 0.0464603 0.00228929 0.0106992 0.0255736 0.027445 0.0319803 0.00451508 0.057183 0.00547482 0.035726 -0.0087165 0.0123201 0.0236417 -0.02309 0.00301396 0.0230451 0.0180352 0.0294186 0.0343541 0.0446114 0.0283183 -0.00127582 0.0206814 0.0337421 0.00946473 0.0473421 0.0691274 0.0331688 0.0366735 0.0656298 0.00335754 0.0123442 0.0265316 0.033968 0.0543533 0.00237922 0.0466947 0.0308373 0.0100462 0.0192883 0.0353789 0.0311169 0.0356873 0.0505673 0.0301229 0.0204616 0.0524773 0.0472654 0.0747824 0.0569186 0.00722508 0.0091349 0.0133377 0.0269674 0.00874983 0.000377163
internal_weight=3303.38 1353.16 1950.22 909.492 1698.06 1176.98 443.669 587.596 252.168 321.896 311.842 239.906 545.883 221.954 532.078 221.716 679.026 71.9365 43.7874 497.954 444.911 124.162 87.1679 227.259 152.811 79.2297 29.6464 128.007 117.633 30.7722 56.3956 16.1344 9.03424 203.526 161.701 6.52913 101.907 54.1679 85.0839 55.7782 49.5833 35.2002 20.3421 18.9677 9.67358 74.4488 157.192 115.705 96.5299 26.2729 70.257 39.984 9.2941 41.4872 47.8066 15.8614 274.473 242.194 163.656 41.2148 122.441 78.5379
internal_count=36331 12014 24317 8999 21855 14556 3015 6289 2462 2710 2567 1870 5715 1328 5519 1687 8024 697 403 6532 4630 1088 889 1788 1183 576 238 1374 1036 283 606 125 65 1554 1227 52 1068 582 731 477 338 393 190 189 107 605 1199 911 764 191 573 333 82 288 254 89 2769 2452 1593 394 1199 859
is_linear=0
shrinkage=0.03


Tree=11
num_leaves=63
num_cat=0
split_feature=0 13 13 0 0 13 13 13 0 0 13 14 13 12 14 13 14 13 13 12 4 14 0 14 13 13 13 14 0 14 3 0 1 15 0 1 0 1 0 14 15 1 13 0 4 0 14 2 1 1 4 1 13 1 0 13 12 15 1 15 1 1
split_gain=1313.83 399.747 391.541 170.562 128.278 113.145 65.7251 56.8566 50.2526 28.2381 25.2242 24.2588 27.7968 23.5169 21.0081 17.6939 17.8694 17.5095 16.8589 24.3449 22.4304 16.5509 19.4002 25.6637 18.8803 16.5218 16.1836 15.6403 21.7017 18.426 17.4446 14.4642 21.4953 13.8172 14.1398 13.5464 13.9617 12.8172 12.4484 13.4409 12.1594 12.0316 18.2295 13.815 12.774 11.8845 27.478 13.7343 11.8233 11.8097 11.644 11.5218 11.39 10.9229 10.8298 10.5998 10.8564 10.5751 10.4386 20.5376 16.9775 10.131
threshold=6.8100000000000014 0.058257918552036152 0.11010101010101007 3.3600000000000008 22.010000000000002 0.18469785575048728 0.21320346320346317 0.042109929078014162 16.025000000000002 2.1300000000000003 0.028174603174603106 0.21525096525096524 0.17752100840336132 28.250000000000004 0.41277890466531442 0.13100686498855832 0.31909090909090915 0.4045454545454546 0.13423423423423422 32.750000000000007 2.5000000000000004 0.50757575757575768 4.705000000000001 0.27681992337164757 0.26568627450980392 0.36181818181818187 0.075961538461538455 0.42206477732793524 5.0150000000000015 0.17712418300653593 1.7509124087591244 34.020000000000003 163.61000000000004 19.500000000000004 3.6750000000000003 1765.7650000000001 15.025000000000002 9591.7900000000027 3.2750000000000004 0.20761494252873561 4.5000000000000009 2902.5350000000003 0.37797619047619052 10.525000000000002 6.5000000000000009 4.9050000000000011 0.12579113924050633 1.0000000180025095e-35 5911.4900000000007 12645.115000000003 1.5000000000000002 2454.7900000000004 0.098780487804878067 37751.760000000002 4.205000000000001 0.28869047619047622 28.850000000000005 29.500000000000004 1399.4950000000001 17.500000000000004 1085.0650000000003 1336.1050000000002
decision_type=2 2 2 2 2 2 2 2 2 2 2 2 2 2 2 2 2 2 2 2 2 2 2 2 2 2 2 2 2 2 2 2 2 2 2 2 2 2 2 2 2 2 2 2 2 2 2 2 2 2 2 2 2 2 2 2 2 2 2 2 2 2
left_child=1 10 7 9 6 15 13 -2 -9 52 -1 -11 26 35 -14 16 45 21 -15 20 -20 22 23 -7 -25 53 -13 28 29 -17 -29 32 -6 34 -31 36 -4 -23 39 -12 -33 42 43 -8 -43 46 50 58 51 -24 -5 -35 -3 -16 -53 56 -34 61 59 60 -47 -45
right_child=2 3 4 5 31 17 41 8 -10 11 38 12 14 18 25 27 -18 -19 19 -21 -22 37 49 24 -26 -27 -28 30 -30 33 -32 40 55 48 -36 -37 -38 -39 -40 -41 -42 44 -44 57 -46 47 -48 -49 -50 -51 -52 54 -54 -55 -56 -57 -58 -59 -60 -61 -62 -63
leaf_value=-0.032449394080010664 -0.031626861519858031 0.1127766558117913 0.10234060016631868 0.028050765763636062 0.049573768189727321 0.10324778027407096 0.037822504074397259 -0.0083429527684189143 -0.025176090016105383 0.083783073460742014 0.080899447117685097 -0.027865895433022175 0.07211436997056489 -0.0087176737165472421 0.039594935219642177 0.11098775687519115 -0.0076480019646329982 0.059381483092062287 0.062311326373975302 -0.0013823824210746976 0.012236388584125136 0.036574206168041704 0.036824809801712911 0.036848117934624711 0.07281896897948642 0.061426834985397395 0.032770799062550669 -0.00591723022320395 0.014237644613229711 0.069142706912535684 0.046862149355632293 0.016539870974351466 0.021695760865555507 0.037030728109474484 0.0087002759244693435 0.0012833290478503896 0.02615828363905727 0.012767785058461103 -0.010698319417302288 -0.0063455879812595647 -0.021687772414047225 0.016956765279115247 0.064723866416319178 0.026043299305594809 -0.022653288744112612 0.039623839947136717 0.015630322496186767 -0.028090906020268213 0.027935744936040913 0.006732374547884246 0.10567079484001289 0.13390652520776225 0.064174780211304724 -0.0039662497133750108 0.065154425092191839 0.019557894492418328 -0.015317848420156238 0.082380024325161769 0.004690764141483914 -0.0010654305256933055 0.14426509575494903 0.0019040829924371002
leaf_weight=88.865612581372261 559.67479225248098 4.5855515450239173 4.176811642944811 2.7791907489299765 5.7705581039190283 8.1481419801712018 40.648883879184723 259.66721031069756 414.24470915645361 14.650818429887293 3.1045981720089939 4.1922062560915938 35.028052285313606 132.41040445119143 54.801362901926041 3.2239635288715354 50.31978302448988 32.868889920413494 8.9414515048265439 214.54774339497089 80.82323357462883 41.666157476603985 89.586690731346607 47.477855741977692 18.154060088098049 34.765348762273788 71.946237072348595 28.520811401307583 53.683519400656223 4.2881573587656048 7.024090312421321 7.8020136058330527 7.6977261379361144 5.774046033620837 18.560709841549397 5.1125042662024489 4.4951828941702843 39.792324468493462 25.365102224051952 3.255950853228569 186.41767285019159 104.12557539343834 10.982542790472506 29.685417912900448 7.8822516128420821 4.497536323964594 63.124231062829494 9.7183644920587522 10.384290143847464 13.506839938461779 4.6490561068058014 3.3581742793321592 80.94245046377182 5.7214807346463195 5.3423342481255531 10.118173606693743 97.020898841321468 2.0610695779323569 65.564077690243721 7.3431161791086197 2.0231564193964005 33.089521810412407
leaf_count=1274 8073 29 40 20 61 44 329 3101 5591 88 26 35 185 1531 345 20 500 189 74 2294 824 302 650 317 104 186 534 262 489 32 65 85 97 44 155 51 45 311 295 32 2401 884 78 265 76 46 586 90 80 107 34 25 453 45 40 102 1198 20 671 75 21 305
internal_value=-0.000150654 0.027195 -0.0132699 0.0337392 0.000743575 0.0249407 0.00808282 -0.0245594 -0.0186901 0.0521428 -0.0242513 0.0464806 0.0438335 0.00143581 0.0522476 0.0134504 0.00794139 0.0387582 0.00021808 0.00410615 0.0172243 0.0361342 0.0412874 0.053032 0.0467978 0.0449446 0.0294321 0.0217051 0.0275466 0.0415747 0.0045126 -0.0150849 -0.00692483 0.0368839 0.0200438 0.0400163 0.062851 0.0249448 -0.00128806 0.0362389 -0.0201521 0.0211894 0.0279407 0.024111 0.0141693 0.0128535 0.0220528 0.00557292 0.0523624 0.0328822 0.0766302 0.0698865 0.0667806 0.0354769 0.091691 -0.00976388 -0.012597 0.0155146 0.00969184 0.0333427 0.0720906 0.0133192
internal_weight=3296 1068.6 2227.4 948.013 993.81 641.38 678.983 1233.59 673.912 306.634 120.591 221.106 206.455 450.507 130.316 350.179 210.019 291.201 436.723 304.312 89.7647 258.332 176.874 73.7801 65.6319 95.2882 76.1384 140.16 104.615 50.9317 35.5449 314.827 120.607 47.7077 22.8489 13.7845 8.67199 81.4585 31.7257 6.36055 194.22 228.475 116.467 105.485 112.008 159.699 70.5525 89.1463 24.8588 103.094 7.42825 14.4746 85.528 60.5228 8.70051 114.837 104.719 64.836 79.4279 13.8638 6.52069 62.7749
internal_count=36331 8806 27525 7179 10760 5279 6816 16765 8692 1900 1627 1418 1330 4859 761 3255 2043 2024 4723 3192 898 1835 1222 465 421 576 569 1212 885 396 327 3944 1458 376 187 136 85 613 353 58 2486 1957 997 919 960 1543 640 903 189 757 54 109 482 390 65 1397 1295 590 813 142 67 570
is_linear=0
shrinkage=0.03


Tree=12
num_leaves=63
num_cat=0
split_feature=0 13 13 0 0 13 13 13 0 13 0 0 14 12 13 13 12 4 14 0 14 13 14 0 1 0 1 14 13 1 14 13 14 12 14 0 14 15 0 13 12 15 13 1 12 0 0 15 12 1 14 1 0 6 12 14 0 4 1 13 12 13
split_gain=1229.07 380.789 375.771 151.46 119.337 89.4196 62.453 53.0582 44.5518 42.066 24.549 16.9146 22.1425 16.5849 16.4908 16.2654 23.7763 18.2376 14.7423 24.6432 21.5092 17.226 14.1718 27.9328 15.2022 14.0962 19.702 13.7785 14.869 13.1983 12.6346 19.2049 14.521 12.0397 11.7454 22.0392 12.7549 12.0566 12.4399 11.708 13.7506 11.6876 11.4501 18.4699 12.8574 13.5647 11.4039 17.5091 11.4694 11.3998 10.9747 10.6816 14.6025 13.2767 10.0564 10.888 15.6232 15.1276 10.0333 9.99957 10.2674 9.99087
threshold=7.0200000000000005 0.070598006644518263 0.11010101010101007 3.3600000000000008 22.010000000000002 0.18469785575048728 0.21320346320346317 0.042109929078014162 17.540000000000003 0.028174603174603106 2.6450000000000005 3.6050000000000004 0.20638945233265718 28.250000000000004 0.4733893557422969 0.13423423423423422 32.750000000000007 2.5000000000000004 0.14087301587301587 4.9050000000000011 0.12060606060606062 0.13100686498855832 0.46770833333333339 4.8050000000000006 6782.3700000000008 34.020000000000003 163.61000000000004 0.28759398496240607 0.32738095238095238 3444.0350000000003 0.21525096525096524 0.21320346320346317 0.34698996655518394 35.350000000000001 0.42206477732793524 5.0150000000000015 0.17712418300653593 19.500000000000004 3.6750000000000003 0.27888888888888896 40.350000000000001 4.5000000000000009 0.37797619047619052 7758.6200000000017 34.650000000000013 18.550000000000004 9.6050000000000022 32.500000000000007 30.050000000000004 1941.1900000000003 0.31909090909090915 3923.2200000000007 4.205000000000001 22.500000000000004 42.250000000000007 0.41042780748663105 9.2100000000000026 2.5000000000000004 5911.4900000000007 0.28869047619047622 28.850000000000005 0.089087301587301507
decision_type=2 2 2 2 2 2 2 2 2 2 2 2 2 2 2 2 2 2 2 2 2 2 2 2 2 2 2 2 2 2 2 2 2 2 2 2 2 2 2 2 2 2 2 2 2 2 2 2 2 2 2 2 2 2 2 2 2 2 2 2 2 2
left_child=1 9 7 10 6 18 13 -2 -9 -1 -3 12 -11 49 22 -15 17 -17 19 61 -21 50 23 27 39 26 -6 -7 33 -22 -12 -32 -33 -29 35 36 -23 38 -38 40 -25 -27 44 -44 -8 54 48 -48 -19 -4 -20 52 -24 -53 55 56 57 -46 -39 60 -28 -5
right_child=2 3 4 5 25 14 42 8 -10 11 30 -13 -14 15 -16 16 -18 46 21 20 29 34 51 24 -26 41 59 28 -30 -31 31 32 -34 -35 -36 -37 37 58 -40 -41 -42 -43 43 -45 45 -47 47 -49 -50 -51 -52 53 -54 -55 -56 -57 -58 -59 -60 -61 -62 -63
leaf_value=-0.032371092468002946 -0.031523211171348264 0.057121143737504244 0.052197805671650679 0.039698921787363096 0.046232509907936696 0.083128956587847053 0.053535575464095854 -0.0096668242227487544 -0.025506160789845203 0.069725788601236405 0.075961375160547726 -0.0087167657556024691 -0.0061603109191638297 -0.0089192947302132505 0.059838048192611605 0.057129265752239151 -0.001664233797476797 0.095355007579787918 0.010218895119185153 -0.00061087695142166075 0.02027436929118805 0.097867494243117914 0.0028422585469566695 0.037765966372773768 0.011682313499837995 0.015831516798829898 0.020666287953583117 -0.011004621332912717 0.10467662058314423 0.10431888507332847 0.026023824399314301 0.090102237929107987 0.044311762117844447 0.04777737045979822 0.0048127079093558036 0.011748682833505089 0.063997224936258354 0.064638169432635409 0.0083859877803694888 0.063351396518272277 -0.0070024726070288448 -0.021425864826701911 0.050726367354562242 -0.0071942402823846783 0.087686317782597153 -0.0098844787921716568 0.0004052555791499444 0.051965849577607137 0.023952160432001809 -0.0064511070743486464 -0.0065830668341891069 -0.02121209905074627 0.056229951288200151 0.02480103149028046 0.0095930981785484655 0.041942033285777079 0.01023096430915748 0.02772988646516307 0.026578148889869018 0.018682170968769288 -0.015049652410603945 0.10926824286284036
leaf_weight=89.970567099750042 540.97717214375734 172.09447738528252 9.3690776005387288 3.1786214560270336 5.9983253255486479 12.611145839095114 8.7155630216002447 276.27527482807636 379.15800854563713 6.5103654116392118 8.31652984023094 42.682066887617111 7.387138731777668 127.5209996253252 24.029009453952312 9.0874266400933248 208.07718404382467 2.3078671246767071 126.18616378307343 16.152622357010845 3.2907382622361174 3.0739807188510886 6.0214636698365238 41.31248489767313 29.815080925822258 7.9049575626850119 7.8365648463368407 3.3685435429215422 3.888347476720809 3.4392522126436234 63.369178757071495 6.9709813594818106 58.865718610584736 45.415358118712902 36.807181790471077 58.500978469848633 4.4906718805432346 15.165955588221552 18.676827795803547 12.774736523628233 7.2598297968506804 183.08622989803553 22.710376448929313 6.3377528339624396 4.6263492628932026 16.30837194621563 54.575145520269871 6.6497317627072325 16.498728364706039 4.375919707119464 48.410284243524075 6.0025369599461547 19.683552138507366 94.419315993785858 66.367762461304665 24.672052651643753 55.403432078659534 20.885125309228897 10.584125861525534 10.272271819412707 95.805963568389416 4.4711722433567047
leaf_count=1326 8017 961 88 24 61 68 65 3343 5260 49 49 483 67 1488 131 72 2232 20 1231 156 30 18 40 294 232 85 97 21 20 28 472 33 343 284 339 531 32 109 155 80 54 2401 160 50 36 166 569 68 153 44 484 44 135 691 578 214 480 163 80 102 1198 27
internal_value=-0.000156432 0.0254438 -0.0133019 0.0322625 0.000518591 0.0241314 0.00769634 -0.0245692 -0.0188296 -0.0196251 0.0495697 0.000643054 0.029389 0.00109293 0.0359791 4.33095e-05 0.00388899 0.0168548 0.0138243 0.0337469 0.0181635 0.0119346 0.0339502 0.0399826 0.0292553 -0.0148222 -0.00676046 0.0549623 0.0482185 0.063224 0.0401199 0.0378129 0.0491602 0.0437185 0.0194903 0.0243797 0.0385921 0.0348672 0.0191654 0.0377959 0.0310747 -0.0198838 0.0205061 0.0380892 0.0179131 0.016264 0.0122817 0.00600533 0.0327144 0.0335261 0.00556022 0.0264677 0.0437238 0.0220507 0.0187439 0.0244958 0.0191762 0.0386026 0.0489943 -0.00955087 -0.0123491 0.080361
internal_weight=3287 1115.2 2171.8 968.647 975.393 659.03 664.489 1196.41 655.433 146.55 309.617 56.5796 13.8975 438.462 306.601 424.717 297.196 89.1189 352.429 30.5324 22.8826 321.896 282.572 156.446 91.1621 310.904 119.913 65.2834 52.6722 6.72999 137.522 129.206 65.8367 48.7839 147.3 110.493 51.9916 48.9176 23.1675 61.3471 48.5723 190.991 226.027 29.0481 196.979 188.263 80.0315 61.2249 18.8066 13.745 174.596 126.127 25.705 100.422 171.955 105.587 80.9149 25.5115 25.7501 113.915 103.643 7.64979
internal_count=36331 9121 27210 7196 10590 5338 6646 16620 8603 1925 1858 599 116 4734 2094 4602 3114 882 3244 265 214 2979 1963 1053 660 3944 1458 393 325 58 897 848 376 305 1264 925 394 376 187 428 348 2486 1912 210 1702 1637 810 637 173 132 1715 910 175 735 1471 893 679 199 189 1397 1295 51
is_linear=0
shrinkage=0.03


Tree=13
num_leaves=63
num_cat=0
split_feature=0 13 13 0 0 13 13 13 13 0 0 1 13 14 13 14 0 14 12 0 1 13 12 5 12 17 13 12 0 12 13 14 13 13 0 1 0 3 1 1 3 1 1 13 12 3 13 12 13 1 0 13 1 3 1 14 3 14 1 13 12 1
split_gain=1150.57 374.24 328.92 155.157 101.573 92.7061 50.0758 46.706 42.4134 41.6095 33.5879 18.2649 20.8452 16.2074 22.2219 17.3158 15.8643 22.0987 15.7706 13.731 18.1072 13.4056 18.8193 14.1312 12.5853 13.4192 12.5399 15.533 13.3151 19.546 11.5426 11.8414 11.4441 11.4294 11.1459 10.4567 15.1853 11.387 10.402 10.3772 10.0107 9.80275 9.74811 9.49977 16.1913 12.3642 9.43688 9.71507 9.28467 9.13296 11.9484 9.01745 8.90375 8.61356 8.43822 8.29038 8.28816 9.01974 8.23367 12.9562 9.91466 7.93656
threshold=7.6200000000000001 0.070598006644518263 0.11010101010101007 3.7750000000000004 22.010000000000002 0.18469785575048728 0.042109929078014162 0.21807065217391303 0.021527777777777753 17.540000000000003 2.6450000000000005 6603.0850000000009 0.37171052631578955 0.25760368663594474 0.19139194139194138 0.38799283154121872 3.3150000000000004 0.20638945233265718 28.250000000000004 34.020000000000003 163.61000000000004 0.13423423423423422 33.750000000000007 1.0000000180025095e-35 30.650000000000002 1.0000000180025095e-35 0.097167584579071611 29.450000000000003 5.1100000000000003 27.850000000000005 0.38278388278388281 0.82575757575757591 0.16064516129032258 0.18065268065268067 15.515000000000002 7358.3350000000009 4.5150000000000015 1.2627264883520277 14376.300000000001 6021.9350000000004 3.0113132209405507 4214.6400000000012 2756.9350000000004 0.26794871794871794 37.550000000000004 1.2834577114427863 0.28869047619047622 28.850000000000005 0.15268065268065267 1468.8750000000002 15.025000000000002 0.15894736842105264 303.21500000000009 1.2180706521739133 37751.760000000002 0.10960960960960962 1.8791102514506772 0.14459930313588848 2902.5350000000003 0.37797619047619052 35.45000000000001 4288.5800000000008
decision_type=2 2 2 2 2 2 2 2 2 2 2 2 2 2 2 2 2 2 2 2 2 2 2 2 2 2 2 2 2 2 2 2 2 2 2 2 2 2 2 2 2 2 2 2 2 2 2 2 2 2 2 2 2 2 2 2 2 2 2 2 2 2
left_child=1 8 6 10 7 26 -2 18 -1 -8 -3 43 -13 32 38 -16 17 -10 49 20 -6 -20 23 -23 40 -26 28 55 29 -5 54 -32 61 -27 39 36 37 41 53 48 -25 -29 -39 44 -7 -46 47 -22 -24 50 -4 -38 -50 -15 -17 -28 57 -57 59 60 -9 -12
right_child=2 3 4 5 19 11 9 58 16 -11 13 12 -14 14 15 30 -18 -19 21 -21 46 22 34 24 25 33 27 35 -30 -31 31 -33 -34 -35 -36 -37 51 42 -40 -41 -42 -43 -44 -45 45 -47 -48 -49 52 -51 -52 -53 -54 -55 -56 56 -58 -59 -60 -61 -62 -63
leaf_value=-0.032292918766333556 -0.031524519243657977 0.053814277921013676 0.095648800818852103 0.069561151022688297 0.043250128766499668 0.05001609751500203 -0.0095148121558911326 0.050023038793254211 0.072761190316496804 -0.025288533912740201 0.0052720281858127703 0.018663963349068721 0.045674475858687301 0.031867097992855871 0.067362188302996798 0.033441275864004201 -0.0081154286044810616 -0.0075834909171533221 -0.0085672406040132772 -0.019616013719425264 0.019704046981730089 0.007172043001083408 -0.01413888100806617 0.024726234389699828 -0.027162771655560098 0.019795264203047384 0.00051909894470359298 0.036622020686692763 -0.01204483004361997 0.0036088944032409568 0.068223958197744836 0.028305628384612837 0.087712071276348974 0.082910525574987015 -0.016840534325666172 0.0011181624013701023 0.0057677814496745784 0.0011121247821227163 0.0039886338003487102 -0.018508952236080126 0.10347752030979365 0.0018404920427226052 0.066993090593148286 0.050028838801124152 0.045254984328126975 0.015830005284454877 0.017859239623053542 -0.014783390499432251 0.061438876417732879 0.0036622149185768491 0.020915385458072942 0.022303915155829818 0.0073954679289265452 -0.0074701493552419302 -0.0029640160071644135 0.075764506050274849 0.0100323071417221 0.020545757684542969 0.012242739522900531 0.055392670561698873 0.017573566094795788 0.054971318722619039
leaf_weight=96.211912900209427 515.5010911077261 177.10951492190361 3.4525767192244512 4.8085904568433788 6.2161125093698493 37.173838265240192 253.21821699291468 9.4608023241162282 5.7380871176719648 371.07102067768574 3.6009937226772371 107.97311957925558 33.753515757620335 51.165389306843281 19.60861673951149 67.839979648590088 52.529541745781898 6.6536788865923882 118.55859879404306 187.8451731801033 7.9705792888998976 96.914230294525623 18.709961220622063 2.5008382126688984 4.1503584757447252 11.627252541482447 4.2867735326290157 15.435650400817396 41.753540545701981 25.444331616163254 17.417990118265156 10.856883510947226 8.2704142183065397 3.3194337263703355 40.498815529048443 70.96657620370388 111.69669835269451 2.5138884559273711 22.710120514035225 20.072209931910038 3.4663848206400871 13.824210815131662 10.317043602466581 54.971924796700478 18.537726707756519 41.904131859540939 10.420908622443674 94.623652189970016 2.8364943265914908 5.5613028556108475 4.3529142662882805 40.419837474822998 83.828462213277817 5.5535297170281401 6.2587753012776366 8.8871074840426463 4.0722051560878745 3.8010243698954573 90.267971724271774 11.028687320649622 81.27276049554348 14.684454612433909
leaf_count=1459 7851 961 30 35 61 252 3097 75 40 5260 26 794 206 399 96 429 608 60 1397 2486 97 1009 206 20 38 107 40 127 440 242 87 57 41 30 474 653 1105 22 175 218 29 116 91 343 121 319 102 1198 29 54 41 346 856 50 45 72 39 35 761 73 697 104
internal_value=-0.000161365 0.0229407 -0.0138375 0.0294295 -0.000482893 0.0203762 -0.0246046 0.00658277 -0.0196496 -0.0188905 0.0440135 0.0328513 0.0250968 0.0363992 0.0334947 0.0415357 -0.00091261 0.0296206 0.000977298 -0.0145619 -0.00659935 -7.70658e-05 0.00341893 0.0123649 0.0324436 0.0205605 0.0101268 0.0129421 -0.00106376 0.0140918 0.0365889 0.0528963 0.0584287 0.0338122 -0.00315677 0.0109732 0.0145744 0.030522 0.0211458 0.00126084 0.0704732 0.020189 0.0540854 0.040054 0.0344366 0.0248547 -0.00934119 -0.0121041 0.00502666 0.0330404 0.053972 0.0101617 0.00916428 0.0280155 0.0303663 0.0377487 0.0472709 0.0592224 0.0188384 0.0246891 0.0209571 0.0451839
internal_weight=3277.5 1218.75 2058.75 1057.62 918.956 652.542 1139.79 611.88 161.133 624.289 405.077 294.314 141.727 227.967 201.411 121.982 64.9213 12.3918 419.85 307.076 119.231 406.483 287.924 121.978 25.0643 19.097 358.227 286.221 72.0065 30.2529 102.374 28.2749 26.5559 14.9467 165.946 265.174 194.207 42.0908 79.429 125.447 5.96722 29.2599 12.8309 152.588 97.6157 60.4419 113.015 102.594 105.375 13.3668 7.80549 152.117 86.665 56.7189 74.0988 21.0471 16.7603 12.6881 192.03 101.762 90.7336 18.2854
internal_count=36331 10035 26296 7868 10088 5398 16208 6144 2167 8357 2470 2035 1000 1509 1338 714 708 100 4538 3944 1458 4413 3016 1233 224 175 3363 2646 717 277 618 144 171 137 1783 2460 1807 356 624 1309 49 243 113 1035 692 440 1397 1295 1091 125 71 1451 885 449 474 186 146 107 1606 845 772 130
is_linear=0
shrinkage=0.03


Tree=14
num_leaves=63
num_cat=0
split_feature=0 19 19 0 0 12 12 15 0 0 0 15 0 12 12 0 15 15 14 4 15 0 15 14 14 12 12 14 12 14 12 0 15 12 12 14 12 15 14 15 12 14 14 15 14 12 14 15 15 12 0 4 14 0 14 12 0 14 14 12 0 15
split_gain=1083.64 289.242 162.736 129.794 98.3627 50.3288 43.8232 37.2803 35.7048 32.0967 28.7348 21.6029 20.0254 18.7856 17.5556 15.3583 12.9182 12.9062 12.2793 12.0309 11.953 11.2302 10.9057 10.895 10.3059 14.4784 13.2332 10.0367 26.6321 11.6502 10.5462 9.95615 9.90974 9.84317 9.82506 13.5099 9.53866 8.91177 8.55272 8.51187 8.28906 8.15006 8.04208 7.94928 7.85136 7.75767 26.7757 7.67522 7.58864 7.58458 7.50665 10.8476 7.35582 6.87052 6.80504 7.36961 7.64936 6.75512 6.67103 7.47592 6.64341 6.61678
threshold=9.2100000000000026 1.0000000180025095e-35 1.0000000180025095e-35 3.7750000000000004 21.045000000000005 25.550000000000004 26.550000000000004 4.5000000000000009 3.0600000000000001 2.5250000000000004 19.005000000000006 4.5000000000000009 5.3200000000000012 35.550000000000004 24.750000000000004 6.0100000000000007 24.500000000000004 38.500000000000007 0.41277890466531442 1.5000000000000002 47.500000000000007 38.07500000000001 6.5000000000000009 0.52086956521739147 0.19478319783197831 30.950000000000003 31.450000000000003 0.24357284113381675 28.250000000000004 0.12933094384707286 26.450000000000003 12.510000000000002 14.500000000000002 33.550000000000004 34.550000000000004 0.37715517241379315 42.250000000000007 9.5000000000000018 0.28062500000000007 13.500000000000002 44.550000000000004 0.42678571428571427 0.46770833333333339 11.500000000000002 0.28388278388278393 46.45000000000001 0.59175084175084181 25.500000000000004 29.500000000000004 47.750000000000007 5.3200000000000012 2.5000000000000004 0.13100686498855832 2.0700000000000007 0.82575757575757591 42.850000000000001 8.8050000000000015 0.70294117647058829 0.42678571428571427 40.650000000000013 4.9050000000000011 33.500000000000007
decision_type=2 2 2 2 2 2 2 2 2 2 2 2 2 2 2 2 2 2 2 2 2 2 2 2 2 2 2 2 2 2 2 2 2 2 2 2 2 2 2 2 2 2 2 2 2 2 2 2 2 2 2 2 2 2 2 2 2 2 2 2 2 2
left_child=1 3 4 7 5 -2 37 -1 18 41 34 -8 19 44 -6 23 27 -18 -3 -13 -14 -16 -12 -15 26 -26 52 28 29 30 -11 47 43 -29 -4 48 42 -5 -27 40 -38 -9 -37 50 -10 -24 -47 -7 -36 -42 51 -25 60 -20 55 56 58 -51 59 -17 -21 -40
